{"learner":{"attributes":{"scikit_learn":"{\"_estimator_type\": \"classifier\"}"},"feature_names":["metascore_norm","rt_score_norm","imdb_rating_norm","imdb_votes_norm","release_year_norm","genre_Crime","genre_Animation","genre_Thriller","genre_Adventure","genre_Action","genre_Romance","genre_Comedy","genre_Documentary","genre_Fantasy","genre_War","genre_History","genre_Science Fiction","genre_Music","genre_Drama","genre_TV Movie","genre_Horror","genre_Family","genre_Western","genre_Mystery","genre_None","language_lv","language_zu","language_ln","language_ja","language_ur","language_fr","language_sr","language_tl","language_nl","language_ru","language_hu","language_tn","language_eo","language_vi","language_br","language_mr","language_sv","language_hi","language_bg","language_bs","language_hy","language_dz","language_pl","language_oj","language_fa","language_ca","language_af","language_ar","language_ga","language_tr","language_wo","language_jv","language_qu","language_kk","language_ml","language_ko","language_is","language_it","language_no","language_te","language_da","language_th","language_yi","language_bn","language_kw","language_zh","language_kn","language_lt","language_de","language_km","language_cs","language_nv","language_mk","language_mo","language_ta","language_sh","language_my","language_su","language_sq","language_ff","language_yo","language_mg","language_fy","language_None","language_fi","language_nd","language_so","language_id","language_he","language_sk","language_xh","language_gu","language_hr","language_ku","language_en","language_lb","language_et","language_ka","language_ne","language_uk","language_sw","language_ht","language_bo","language_es","language_ro","language_el","language_cn","language_pa","language_ms","language_pt","language_cy","language_la","language_gd","language_gl","language_xx","language_se"],"feature_types":["float","float","float","float","float","float","float","float","float","float","float","float","float","float","float","float","float","float","float","float","float","float","float","float","float","float","float","float","float","float","float","float","float","float","float","float","float","float","float","float","float","float","float","float","float","float","float","float","float","float","float","float","float","float","float","float","float","float","float","float","float","float","float","float","float","float","float","float","float","float","float","float","float","float","float","float","float","float","float","float","float","float","float","float","float","float","float","float","float","float","float","float","float","float","float","float","float","float","float","float","float","float","float","float","float","float","float","float","float","float","float","float","float","float","float","float","float","float","float","float","float"],"gradient_booster":{"model":{"gbtree_model_param":{"num_parallel_tree":"1","num_trees":"50"},"iteration_indptr":[0,1,2,3,4,5,6,7,8,9,10,11,12,13,14,15,16,17,18,19,20,21,22,23,24,25,26,27,28,29,30,31,32,33,34,35,36,37,38,39,40,41,42,43,44,45,46,47,48,49,50],"tree_info":[0,0,0,0,0,0,0,0,0,0,0,0,0,0,0,0,0,0,0,0,0,0,0,0,0,0,0,0,0,0,0,0,0,0,0,0,0,0,0,0,0,0,0,0,0,0,0,0,0,0],"trees":[{"base_weights":[5.2355286E-2,-9.1348845E-1,6.397931E0,-1.1087177E0,8.168498E-1,-1.731659E-1,1.444827E0,-2.6143655E-1,-2.2716859E-1,-2.8245184E-1,2.6458888E0,-7.628761E-1,2.010254E-1,6.4154917E-1,-5.3286624E-1,-1.5295005E-1,7.7930546E-1,-1.7912875E-1,-1.965093E-2,1.7639413E-1,3.3460144E-2,-1.5669218E-1,2.6562084E-2],"categories":[],"categories_nodes":[],"categories_segments":[],"categories_sizes":[],"default_left":[1,1,0,0,1,0,0,0,0,0,0,0,0,0,0,0,0,0,0,0,0,0,0],"id":0,"left_children":[1,3,5,7,9,-1,-1,11,-1,13,15,17,-1,19,21,-1,-1,-1,-1,-1,-1,-1,-1],"loss_changes":[1.4140104E3,6.8564224E1,1.891549E2,3.8491821E0,4.273444E1,0E0,0E0,5.146028E0,0E0,3.568855E0,3.682919E1,3.98041E-1,0E0,2.43245E-1,2.0256045E0,0E0,0E0,0E0,0E0,0E0,0E0,0E0,0E0],"parents":[2147483647,0,0,1,1,2,2,3,3,4,4,7,7,9,9,10,10,11,11,13,13,14,14],"right_children":[2,4,6,8,10,-1,-1,12,-1,14,16,18,-1,20,22,-1,-1,-1,-1,-1,-1,-1,-1],"split_conditions":[3.493456E-3,7.3E-1,1E0,5.3125E-1,5.206038E-4,-1.731659E-1,1.444827E0,1E0,-2.2716859E-1,7.1875E-1,7.876106E-1,5E-1,2.010254E-1,1E0,1E0,-1.5295005E-1,7.7930546E-1,-1.7912875E-1,-1.965093E-2,1.7639413E-1,3.3460144E-2,-1.5669218E-1,2.6562084E-2],"split_indices":[3,1,99,0,3,0,0,11,0,0,4,0,0,18,12,0,0,0,0,0,0,0,0],"split_type":[0,0,0,0,0,0,0,0,0,0,0,0,0,0,0,0,0,0,0,0,0,0,0],"sum_hessian":[2.287608E2,1.992843E2,2.9476505E1,1.794021E2,1.9882193E1,3.0054476E0,2.6471058E1,5.8953013E0,1.735068E2,1.2946544E1,6.9356484E0,4.5081716E0,1.3871297E0,2.427477E0,1.0519067E1,1.9651004E0,4.970548E0,3.4678242E0,1.0403472E0,1.0403472E0,1.3871297E0,7.513619E0,3.0054476E0],"tree_param":{"num_deleted":"0","num_feature":"121","num_nodes":"23","size_leaf_vector":"1"}},{"base_weights":[-7.941424E-2,-8.616297E-1,2.2900124E0,-1.0717049E0,5.8252454E-1,-1.7194216E-1,4.9350291E-1,-3.92829E-1,-2.178278E-1,-3.0085254E-1,1.2410249E0,-1.6215058E-1,1.9598787E-1,-1.511117E-1,1.4867316E-1,-1.5592258E-1,1.6970508E0,-2.2056451E-2,8.2867794E-2,1.404923E-1,-1.0455952E-1,-1.6056547E-1,4.386344E-1],"categories":[],"categories_nodes":[],"categories_segments":[],"categories_sizes":[],"default_left":[1,1,0,0,1,0,0,0,0,1,0,0,0,0,0,0,0,0,0,0,0,0,0],"id":1,"left_children":[1,3,5,7,9,-1,-1,11,-1,13,15,-1,17,-1,19,-1,21,-1,-1,-1,-1,-1,-1],"loss_changes":[4.426968E2,5.508116E1,3.5270264E1,1.4310303E0,1.4010292E1,0E0,0E0,1.5114912E0,0E0,2.3233218E0,1.3879076E1,0E0,2.5214094E-1,0E0,2.7006211E0,0E0,1.5939186E1,0E0,0E0,0E0,0E0,0E0,0E0],"parents":[2147483647,0,0,1,1,2,2,3,3,4,4,7,7,9,9,10,10,12,12,14,14,16,16],"right_children":[2,4,6,8,10,-1,-1,12,-1,14,16,-1,18,-1,20,-1,22,-1,-1,-1,-1,-1,-1],"split_conditions":[2.7620373E-3,7.3E-1,1E0,5.208333E-1,2.820762E-4,-1.7194216E-1,4.9350291E-1,5.4761904E-1,-2.178278E-1,6.6972476E-5,7.876106E-1,-1.6215058E-1,4.9E-1,-1.511117E-1,1.5011072E-4,-1.5592258E-1,1E0,-2.2056451E-2,8.2867794E-2,1.404923E-1,-1.0455952E-1,-1.6056547E-1,4.386344E-1],"split_indices":[3,1,99,0,3,0,0,2,0,3,4,0,1,0,3,0,99,0,0,0,0,0,0],"split_type":[0,0,0,0,0,0,0,0,0,0,0,0,0,0,0,0,0,0,0,0,0,0,0],"sum_hessian":[2.367917E2,1.7850008E2,5.8291626E1,1.5605702E2,2.2443062E1,2.9047256E0,5.5386898E1,4.496546E0,1.5156047E2,9.816871E0,1.262619E1,2.4094646E0,2.0870812E0,4.5418696E0,5.2750006E0,2.1941953E0,1.0431995E1,1.0746521E0,1.0124291E0,2.8655307E0,2.4094698E0,1.6251092E0,8.806886E0],"tree_param":{"num_deleted":"0","num_feature":"121","num_nodes":"23","size_leaf_vector":"1"}},{"base_weights":[-1.1966285E-1,-8.215018E-1,1.7948046E0,-1.0423769E0,4.420224E-1,-1.4879869E-1,3.8012314E-1,-4.1397333E-1,-2.1366607E-1,1.4354262E0,7.300174E-2,-1.8311998E-1,1.3241984E-1,4.6415355E-2,3.3573315E-1,-3.441455E-1,9.4608325E-1,-1.5620376E-1,5.712936E-2,2.7272904E-1,-1.19029894E-1],"categories":[],"categories_nodes":[],"categories_segments":[],"categories_sizes":[],"default_left":[1,1,0,0,0,0,0,0,0,0,1,0,0,0,0,1,0,0,0,0,0],"id":2,"left_children":[1,3,5,7,9,-1,-1,11,-1,13,15,-1,-1,-1,-1,17,19,-1,-1,-1,-1],"loss_changes":[2.902972E2,4.454927E1,1.6988525E1,1.755722E0,8.769868E0,0E0,0E0,4.372804E0,0E0,1.5140219E0,7.1381483E0,0E0,0E0,0E0,0E0,3.907473E0,4.8752747E0,0E0,0E0,0E0,0E0],"parents":[2147483647,0,0,1,1,2,2,3,3,4,4,7,7,9,9,10,10,15,15,16,16],"right_children":[2,4,6,8,10,-1,-1,12,-1,14,16,-1,-1,-1,-1,18,20,-1,-1,-1,-1],"split_conditions":[3.493456E-3,7.6E-1,1E0,5.729167E-1,6.770833E-1,-1.4879869E-1,3.8012314E-1,1E0,-2.1366607E-1,3.0714963E-4,7.380952E-1,-1.8311998E-1,1.3241984E-1,4.6415355E-2,3.3573315E-1,7.188819E-4,8.214286E-1,-1.5620376E-1,5.712936E-2,2.7272904E-1,-1.19029894E-1],"split_indices":[3,1,99,0,0,0,0,11,0,3,2,0,0,0,0,3,2,0,0,0,0],"split_type":[0,0,0,0,0,0,0,0,0,0,0,0,0,0,0,0,0,0,0,0,0],"sum_hessian":[2.1395424E2,1.5697755E2,5.6976685E1,1.3376866E2,2.3208899E1,2.0383308E0,5.493835E1,5.9779167E0,1.2779074E2,5.5035405E0,1.7705359E1,4.1789618E0,1.7989548E0,1.253981E0,4.2495594E0,1.2390948E1,5.3144107E0,7.1742234E0,5.2167244E0,4.2721844E0,1.0422268E0],"tree_param":{"num_deleted":"0","num_feature":"121","num_nodes":"21","size_leaf_vector":"1"}},{"base_weights":[-9.241705E-2,-8.146921E-1,1.426022E0,-2.0515493E-1,1.6872504E-1,-1.6410805E-1,1.5429336E0,-1.8079713E-1,4.5435396E-1,7.3718464E-1,3.2279497E-1,-1.7244291E-1,7.045219E-1,-1.1635178E-1,1.0876194E0,-1.5549561E-1,1.9517948E-1,2.996622E-1,-6.1155647E-2],"categories":[],"categories_nodes":[],"categories_segments":[],"categories_sizes":[],"default_left":[1,1,0,0,1,0,0,0,0,0,0,0,0,0,0,0,0,0,0],"id":3,"left_children":[1,3,5,-1,7,-1,9,-1,11,13,-1,-1,15,-1,17,-1,-1,-1,-1],"loss_changes":[2.1240573E2,2.739994E1,1.766861E1,0E0,7.775487E0,0E0,2.228012E0,0E0,7.0787005E0,3.7196114E0,0E0,0E0,7.620243E0,0E0,3.6771703E0,0E0,0E0,0E0,0E0],"parents":[2147483647,0,0,1,1,2,2,4,4,6,6,8,8,9,9,12,12,14,14],"right_children":[2,4,6,-1,8,-1,10,-1,12,14,-1,-1,16,-1,18,-1,-1,-1,-1],"split_conditions":[2.0873637E-3,7.1E-1,1E0,-2.0515493E-1,6.499299E-5,-1.6410805E-1,3.2328242E-3,-1.8079713E-1,1E0,7.787611E-1,3.2279497E-1,-1.7244291E-1,7.787611E-1,-1.1635178E-1,1E0,-1.5549561E-1,1.9517948E-1,2.996622E-1,-6.1155647E-2],"split_indices":[3,1,99,0,3,0,3,0,99,4,0,0,4,0,7,0,0,0,0],"split_type":[0,0,0,0,0,0,0,0,0,0,0,0,0,0,0,0,0,0,0],"sum_hessian":[1.9161243E2,1.3016187E2,6.1450554E1,1.0712524E2,2.3036636E1,2.742E0,5.8708553E1,4.3888674E0,1.8647768E1,5.6786137E0,5.3029938E1,2.5869231E0,1.6060844E1,1.0534816E0,4.625132E0,2.1971433E0,1.3863702E1,3.5140913E0,1.1110406E0],"tree_param":{"num_deleted":"0","num_feature":"121","num_nodes":"19","size_leaf_vector":"1"}},{"base_weights":[-8.3100945E-2,-7.5940835E-1,1.247153E0,-2.0005815E-1,2.1586955E-1,-1.5452377E-1,1.3462496E0,9.0486395E-1,-2.4639721E-1,6.0497123E-1,2.8608695E-1,1.14656E0,-1.1179745E-1,1.4232689E-1,-4.0050924E-1,-2.6901332E-1,1.0096306E0,2.8246683E-1,-9.457915E-3,-1.2118322E-1,5.636738E-2,-1.2728557E-1,5.0291777E-2,2.8190327E-1,-5.5398017E-2],"categories":[],"categories_nodes":[],"categories_segments":[],"categories_sizes":[],"default_left":[1,1,0,0,0,0,0,0,0,0,0,0,0,0,1,0,0,0,0,0,0,0,0,0,0],"id":4,"left_children":[1,3,5,-1,7,-1,9,11,13,15,-1,17,-1,-1,19,21,23,-1,-1,-1,-1,-1,-1,-1,-1],"loss_changes":[1.540934E2,2.6874E1,1.2599548E1,0E0,7.6433516E0,0E0,2.5928802E0,4.026452E0,2.4596844E0,2.8832757E0,0E0,2.7766752E0,0E0,0E0,2.038796E0,7.5794077E-1,3.0956311E0,0E0,0E0,0E0,0E0,0E0,0E0,0E0,0E0],"parents":[2147483647,0,0,1,1,2,2,4,4,6,6,7,7,8,8,9,9,11,11,14,14,15,15,16,16],"right_children":[2,4,6,-1,8,-1,10,12,14,16,-1,18,-1,-1,20,22,24,-1,-1,-1,-1,-1,-1,-1,-1],"split_conditions":[2.0873637E-3,7.1E-1,1E0,-2.0005815E-1,8.4E-1,-1.5452377E-1,3.2328242E-3,1E0,6.354167E-1,8.8495576E-1,2.8608695E-1,7.5E-1,-1.1179745E-1,1.4232689E-1,7.604167E-1,1E0,1E0,2.8246683E-1,-9.457915E-3,-1.2118322E-1,5.636738E-2,-1.2728557E-1,5.0291777E-2,2.8190327E-1,-5.5398017E-2],"split_indices":[3,1,99,0,1,0,3,10,0,4,0,2,0,0,0,18,7,0,0,0,0,0,0,0,0],"split_type":[0,0,0,0,0,0,0,0,0,0,0,0,0,0,0,0,0,0,0,0,0,0,0,0,0],"sum_hessian":[1.6922675E2,1.1247371E2,5.675304E1,9.0175705E1,2.2298002E1,2.3363922E0,5.441665E1,8.568888E0,1.3729115E1,6.384571E0,4.8032078E1,7.5406113E0,1.0282766E0,1.4011672E0,1.2327948E1,2.1266453E0,4.2579255E0,6.017901E0,1.5227104E0,9.561621E0,2.7663267E0,1.1160254E0,1.01062E0,3.1754632E0,1.0824622E0],"tree_param":{"num_deleted":"0","num_feature":"121","num_nodes":"25","size_leaf_vector":"1"}},{"base_weights":[-8.535521E-2,-6.818094E-1,1.1977537E0,-9.785296E-1,2.9109228E-1,-1.3616072E-1,1.2801043E0,-7.201722E-2,-1.977628E-1,7.654261E-1,-2.0218922E-1,4.0002447E-1,1.3169923E0,9.6855444E-1,-1.3962634E-1,-4.479905E-1,5.6553787E-1,-4.9939763E-2,1.8158607E-1,6.38093E-2,2.6660854E-1,2.2320078E-1,-4.2874534E-2,8.4928475E-2,-1.21818535E-1,-1.2470963E-2,2.0891841E-1],"categories":[],"categories_nodes":[],"categories_segments":[],"categories_sizes":[],"default_left":[1,1,0,0,0,0,0,0,0,1,1,1,0,0,0,0,0,0,0,0,0,0,0,0,0,0,0],"id":5,"left_children":[1,3,5,7,9,-1,11,-1,-1,13,15,17,19,21,-1,23,25,-1,-1,-1,-1,-1,-1,-1,-1,-1,-1],"loss_changes":[1.145091E2,2.9744942E1,8.220558E0,1.4277649E-1,5.915551E0,0E0,9.618988E-1,0E0,0E0,4.469732E0,2.6802216E0,1.3094344E0,2.7267456E-1,2.2667446E0,0E0,1.7065797E0,1.1362416E0,0E0,0E0,0E0,0E0,0E0,0E0,0E0,0E0,0E0,0E0],"parents":[2147483647,0,0,1,1,2,2,3,3,4,4,6,6,9,9,10,10,11,11,12,12,13,13,15,15,16,16],"right_children":[2,4,6,8,10,-1,12,-1,-1,14,16,18,20,22,-1,24,26,-1,-1,-1,-1,-1,-1,-1,-1,-1,-1],"split_conditions":[2.628752E-3,7.3E-1,1E0,4.5833334E-1,8.7E-1,-1.3616072E-1,3.2328242E-3,-7.201722E-2,-1.977628E-1,6.770833E-1,7.8125E-1,6.8E-1,4.642857E-1,7.7380955E-1,-1.3962634E-1,6.354167E-1,7.9761904E-1,-4.9939763E-2,1.8158607E-1,6.38093E-2,2.6660854E-1,2.2320078E-1,-4.2874534E-2,8.4928475E-2,-1.21818535E-1,-1.2470963E-2,2.0891841E-1],"split_indices":[3,1,99,0,1,0,3,0,0,0,0,1,2,2,0,0,2,0,0,0,0,0,0,0,0,0,0],"split_type":[0,0,0,0,0,0,0,0,0,0,0,0,0,0,0,0,0,0,0,0,0,0,0,0,0,0,0],"sum_hessian":[1.4755629E2,1.0105119E2,4.6505104E1,7.7430336E1,2.3620853E1,1.6478457E0,4.4857258E1,1.8556484E0,7.557469E1,1.1760444E1,1.186041E1,2.2810028E0,4.2576256E1,1.0624131E1,1.1363127E0,9.299487E0,2.5609224E0,1.2238305E0,1.0571723E0,1.004403E0,4.1571854E1,9.496932E0,1.127199E0,1.1943359E0,8.105151E0,1.4847323E0,1.07619E0],"tree_param":{"num_deleted":"0","num_feature":"121","num_nodes":"27","size_leaf_vector":"1"}},{"base_weights":[-5.811392E-2,-7.5555366E-1,9.28882E-1,-9.2915726E-1,1.9072281E-1,1.5010068E-1,2.3981853E-1,-1.9963972E-1,3.8278466E-1,-1.5205546E-1,4.250166E-1,-3.8365787E-1,6.8250775E-1,1.23462915E-1,-3.0704862E-2,-9.958704E-2,6.7907447E-1,-7.7079795E-2,-1.7542331E-1,-3.4255463E-1,1.1225276E0,-7.8040496E-2,2.0773649E-1,-1.5765065E-1,8.973206E-2,-1.2996517E-1,3.1200146E-2,2.8850546E-1,-4.2001393E-2],"categories":[],"categories_nodes":[],"categories_segments":[],"categories_sizes":[],"default_left":[1,1,0,1,0,0,0,0,0,0,0,0,0,0,0,0,1,0,0,0,0,0,0,0,0,0,0,0,0],"id":6,"left_children":[1,3,5,7,9,11,-1,-1,13,-1,15,17,19,-1,-1,-1,21,23,-1,25,27,-1,-1,-1,-1,-1,-1,-1,-1],"loss_changes":[9.13677E1,1.2946064E1,1.1390438E1,6.3465385E0,3.1927445E0,4.611546E0,0E0,0E0,5.9976524E-1,0E0,2.9115105E0,1.1855655E0,4.003149E0,0E0,0E0,0E0,3.8770695E0,2.6738958E0,0E0,5.8786565E-1,2.7961597E0,0E0,0E0,0E0,0E0,0E0,0E0,0E0,0E0],"parents":[2147483647,0,0,1,1,2,2,3,3,4,4,5,5,8,8,10,10,11,11,12,12,16,16,17,17,19,19,20,20],"right_children":[2,4,6,8,10,12,-1,-1,14,-1,16,18,20,-1,-1,-1,22,24,-1,26,28,-1,-1,-1,-1,-1,-1,-1,-1],"split_conditions":[1.25E-1,7.6E-1,2.0873637E-3,3.2328242E-3,1E0,9.823009E-1,2.3981853E-1,-1.9963972E-1,9.20354E-1,-1.5205546E-1,7.787611E-1,6.770833E-1,6.3095236E-1,1.23462915E-1,-3.0704862E-2,-9.958704E-2,6.499299E-5,5.520833E-1,-1.7542331E-1,4.3416637E-4,8.229167E-1,-7.8040496E-2,2.0773649E-1,-1.5765065E-1,8.973206E-2,-1.2996517E-1,3.1200146E-2,2.8850546E-1,-4.2001393E-2],"split_indices":[0,1,3,3,99,4,0,0,4,0,4,0,2,0,0,0,3,0,0,3,0,0,0,0,0,0,0,0,0],"split_type":[0,0,0,0,0,0,0,0,0,0,0,0,0,0,0,0,0,0,0,0,0,0,0,0,0,0,0,0,0],"sum_hessian":[1.3071094E2,7.672754E1,5.3983395E1,6.484853E1,1.1879001E1,1.4306303E1,3.9677094E1,6.1833664E1,3.0148711E0,1.9043316E0,9.9746685E0,7.2836027E0,7.022701E0,1.9925004E0,1.0223708E0,1.9458343E0,8.028834E0,5.2056303E0,2.0779724E0,2.1757092E0,4.8469915E0,1.9992083E0,6.029626E0,2.0003784E0,3.2052517E0,1.1583647E0,1.0173446E0,3.8418517E0,1.0051402E0],"tree_param":{"num_deleted":"0","num_feature":"121","num_nodes":"29","size_leaf_vector":"1"}},{"base_weights":[-1.1158762E-1,-5.987885E-1,1.0601189E0,-9.413356E-1,1.4744762E-1,-1.2359891E-1,1.1471431E0,-2.715792E-1,-9.679381E-1,-1.7762706E-1,3.265873E-1,5.459813E-2,2.3504923E-1,-1.3931093E-1,7.9710886E-2,-1.969392E-1,-4.762961E-2,-1.6066521E-1,5.1850384E-1,-1.5316305E-1,1.4065951E-1],"categories":[],"categories_nodes":[],"categories_segments":[],"categories_sizes":[],"default_left":[1,1,0,0,0,0,0,0,1,0,1,0,0,0,0,0,0,0,0,0,0],"id":7,"left_children":[1,3,5,7,9,-1,11,13,15,-1,17,-1,-1,-1,-1,-1,-1,-1,19,-1,-1],"loss_changes":[6.724029E1,2.1367878E1,5.765785E0,7.537117E-1,5.297636E0,0E0,4.9650192E-1,1.2942222E0,4.3185043E-1,0E0,5.565262E0,0E0,0E0,0E0,0E0,0E0,0E0,0E0,5.4997864E0,0E0,0E0],"parents":[2147483647,0,0,1,1,2,2,3,3,4,4,6,6,7,7,8,8,10,10,18,18],"right_children":[2,4,6,8,10,-1,12,14,16,-1,18,-1,-1,-1,-1,-1,-1,-1,20,-1,-1],"split_conditions":[3.2328242E-3,7.1E-1,1E0,4.5833334E-1,1E0,-1.2359891E-1,3.493456E-3,5.4761904E-1,1E0,-1.7762706E-1,6.6972476E-5,5.459813E-2,2.3504923E-1,-1.3931093E-1,7.9710886E-2,-1.969392E-1,-4.762961E-2,-1.6066521E-1,7.6106197E-1,-1.5316305E-1,1.4065951E-1],"split_indices":[3,1,99,0,99,0,3,2,15,0,3,0,0,0,0,0,0,0,4,0,0],"split_type":[0,0,0,0,0,0,0,0,0,0,0,0,0,0,0,0,0,0,0,0,0],"sum_hessian":[1.1567644E2,8.204904E1,3.36274E1,5.6056023E1,2.599302E1,1.3570765E0,3.2270325E1,2.56967E0,5.348635E1,3.249619E0,2.2743399E1,1.3388515E0,3.0931473E1,1.5483401E0,1.0213299E0,5.194429E1,1.5420599E0,2.8395674E0,1.9903831E1,2.1081302E0,1.7795702E1],"tree_param":{"num_deleted":"0","num_feature":"121","num_nodes":"21","size_leaf_vector":"1"}},{"base_weights":[-8.7364964E-2,-7.019081E-1,7.449372E-1,-8.6799073E-1,-3.8196523E-2,9.872367E-2,1.018597E0,-9.4384223E-1,3.5429108E-1,4.610406E-1,-3.6344284E-1,-1.4327425E-1,2.926854E-1,3.7631113E-2,1.0486447E0,-9.6424663E-1,-1.4392133E-2,1.18539095E-1,-1.8404186E-3,-2.6530689E-2,7.5124073E-1,3.2633665E-1,-1.7122172E-1,-1.2228184E-1,4.386292E-1,2.1751566E-1,4.630415E-1,-1.9697905E-1,-7.147214E-2,2.2911952E-1,-1.5449877E-2,-3.4048133E-2,1.492896E-1,-3.2734869E-3,1.5946476E-1,-1.8581895E-2,1.4296518E-1],"categories":[],"categories_nodes":[],"categories_segments":[],"categories_sizes":[],"default_left":[1,1,0,1,0,1,0,1,0,0,0,0,0,0,0,0,0,0,0,0,0,0,0,0,0,0,0,0,0,0,0,0,0,0,0,0,0],"id":8,"left_children":[1,3,5,7,9,11,13,15,17,19,21,-1,23,-1,25,27,-1,-1,-1,-1,29,31,-1,-1,33,-1,35,-1,-1,-1,-1,-1,-1,-1,-1,-1,-1],"loss_changes":[5.3155945E1,6.548708E0,7.7145786E0,4.757946E0,2.2779322E0,2.463268E0,5.746803E-1,7.3469543E-1,3.1005785E-1,1.0589474E0,3.1438127E0,0E0,1.8811592E0,0E0,1.7217255E-1,2.0046616E-1,0E0,0E0,0E0,0E0,1.3594139E0,1.0107718E0,0E0,0E0,1.8258705E0,0E0,5.688181E-1,0E0,0E0,0E0,0E0,0E0,0E0,0E0,0E0,0E0,0E0],"parents":[2147483647,0,0,1,1,2,2,3,3,4,4,5,5,6,6,7,7,8,8,9,9,10,10,12,12,14,14,15,15,20,20,21,21,24,24,26,26],"right_children":[2,4,6,8,10,12,14,16,18,20,22,-1,24,-1,26,28,-1,-1,-1,-1,30,32,-1,-1,34,-1,36,-1,-1,-1,-1,-1,-1,-1,-1,-1,-1],"split_conditions":[1.25E-1,7.6E-1,2.0873637E-3,3.2328242E-3,8.4E-1,5.9E-1,5E-1,1E0,6.4285713E-1,9.292035E-1,9.823009E-1,-1.4327425E-1,1E0,3.7631113E-2,1E0,1E0,-1.4392133E-2,1.18539095E-1,-1.8404186E-3,-2.6530689E-2,6.904762E-1,7.380952E-1,-1.7122172E-1,-1.2228184E-1,9.823009E-1,2.1751566E-1,1.043187E-2,-1.9697905E-1,-7.147214E-2,2.2911952E-1,-1.5449877E-2,-3.4048133E-2,1.492896E-1,-3.2734869E-3,1.5946476E-1,-1.8581895E-2,1.4296518E-1],"split_indices":[0,1,3,3,1,1,2,15,2,4,4,0,99,0,23,52,0,0,0,0,2,2,0,0,4,0,3,0,0,0,0,0,0,0,0,0,0],"split_type":[0,0,0,0,0,0,0,0,0,0,0,0,0,0,0,0,0,0,0,0,0,0,0,0,0,0,0,0,0,0,0,0,0,0,0,0,0],"sum_hessian":[1.0190234E2,5.8709755E1,4.3192593E1,4.6712868E1,1.1996889E1,1.3254499E1,2.9938091E1,4.4197872E1,2.5149953E0,4.5678906E0,7.428999E0,2.03007E0,1.1224429E1,1.2989968E0,2.8639095E1,4.3083656E1,1.1142138E0,1.1380364E0,1.376959E0,1.6779716E0,2.8899188E0,3.2359576E0,4.1930413E0,1.1167886E0,1.0107641E1,2.6049974E1,2.5891197E0,4.1063644E1,2.0200112E0,1.6986278E0,1.1912911E0,1.7555939E0,1.4803636E0,4.8763986E0,5.231242E0,1.0037628E0,1.585357E0],"tree_param":{"num_deleted":"0","num_feature":"121","num_nodes":"37","size_leaf_vector":"1"}},{"base_weights":[-5.6657977E-2,-4.6064988E-1,9.582687E-1,-8.441367E-1,1.6130675E-1,-1.23097874E-1,1.0691445E0,-1.1824846E-1,-8.7914944E-1,-1.6158973E-1,3.0116326E-1,3.9308697E-2,2.1951254E-1,-1.1710226E-1,8.2745895E-2,-9.4626266E-1,-3.4248602E-1,-1.4625715E-1,4.2569226E-1,-6.2410552E-2,-1.9411224E-1,-1.5175422E-1,5.6176372E-2,-8.68253E-2,1.0953665E-1],"categories":[],"categories_nodes":[],"categories_segments":[],"categories_sizes":[],"default_left":[1,1,0,0,0,0,1,0,1,0,0,0,0,0,0,0,0,0,1,0,0,0,0,0,0],"id":9,"left_children":[1,3,5,7,9,-1,11,13,15,-1,17,-1,-1,-1,-1,19,21,-1,23,-1,-1,-1,-1,-1,-1],"loss_changes":[3.7694534E1,1.57976465E1,5.2285233E0,9.3245506E-1,3.7521029E0,0E0,4.0011978E-1,9.958795E-1,1.0714798E0,0E0,3.3132472E0,0E0,0E0,0E0,0E0,2.1913147E-1,1.737474E0,0E0,2.4895153E0,0E0,0E0,0E0,0E0,0E0,0E0],"parents":[2147483647,0,0,1,1,2,2,3,3,4,4,6,6,7,7,8,8,10,10,15,15,16,16,18,18],"right_children":[2,4,6,8,10,-1,12,14,16,-1,18,-1,-1,-1,-1,20,22,-1,24,-1,-1,-1,-1,-1,-1],"split_conditions":[3.2328242E-3,7.1E-1,1E0,4.5833334E-1,1E0,-1.23097874E-1,4.7619048E-1,8.8495576E-1,1E0,-1.6158973E-1,7.787611E-1,3.9308697E-2,2.1951254E-1,-1.1710226E-1,8.2745895E-2,4.9E-1,9.823009E-1,-1.4625715E-1,6.6972476E-5,-6.2410552E-2,-1.9411224E-1,-1.5175422E-1,5.6176372E-2,-8.68253E-2,1.0953665E-1],"split_indices":[3,1,99,0,99,0,2,4,12,0,4,0,0,0,0,1,4,0,3,0,0,0,0,0,0],"split_type":[0,0,0,0,0,0,0,0,0,0,0,0,0,0,0,0,0,0,0,0,0,0,0,0,0],"sum_hessian":[8.985632E1,6.466323E1,2.5193094E1,3.9779007E1,2.4884224E1,1.3585685E0,2.3834526E1,2.0318446E0,3.774716E1,2.5354776E0,2.2348745E1,1.0014168E0,2.2833109E1,1.0281436E0,1.0037009E0,3.287296E1,4.874206E0,1.8810303E0,2.0467716E1,1.7237715E0,3.1149185E1,2.7922978E0,2.0819085E0,2.2252185E0,1.8242496E1],"tree_param":{"num_deleted":"0","num_feature":"121","num_nodes":"25","size_leaf_vector":"1"}},{"base_weights":[-1.1187985E-1,-5.663144E-1,7.993923E-1,-1.8576775E-1,-7.033379E-2,-1.1572852E-1,8.833431E-1,4.20142E-1,-2.4963875E-1,3.1175107E-1,2.1166518E-1,-8.733865E-2,7.722471E-1,-4.409628E-1,1.190091E-1,-1.3603556E-1,5.6954116E-1,2.2747314E-2,2.1744256E-1,3.5394006E-3,-1.4529294E-1,-1.3566208E-1,8.3496526E-2,1.8108312E-2,2.1110557E-1],"categories":[],"categories_nodes":[],"categories_segments":[],"categories_sizes":[],"default_left":[1,1,0,0,0,0,0,0,0,0,0,0,0,0,0,0,0,0,0,0,0,0,0,0,0],"id":10,"left_children":[1,3,5,-1,7,-1,9,11,13,15,-1,-1,17,19,21,-1,23,-1,-1,-1,-1,-1,-1,-1,-1],"loss_changes":[3.4652702E1,9.9482155E0,3.738224E0,0E0,2.2682226E0,0E0,2.3394566E0,2.4364352E0,1.3672392E0,2.3494325E0,0E0,0E0,9.7409296E-1,1.6476672E0,1.9862629E0,0E0,1.4488456E0,0E0,0E0,0E0,0E0,0E0,0E0,0E0,0E0],"parents":[2147483647,0,0,1,1,2,2,4,4,6,6,7,7,8,8,9,9,12,12,13,13,14,14,16,16],"right_children":[2,4,6,-1,8,-1,10,12,14,16,-1,-1,18,20,22,-1,24,-1,-1,-1,-1,-1,-1,-1,-1],"split_conditions":[2.0873637E-3,5.9E-1,1E0,-1.8576775E-1,6.458333E-1,-1.1572852E-1,3.493456E-3,2.4314638E-4,7.380952E-1,7.876106E-1,2.1166518E-1,-8.733865E-2,9.6460176E-1,8.4E-1,8.6E-1,-1.3603556E-1,1E0,2.2747314E-2,2.1744256E-1,3.5394006E-3,-1.4529294E-1,-1.3566208E-1,8.3496526E-2,1.8108312E-2,2.1110557E-1],"split_indices":[3,1,99,0,0,0,3,3,2,4,0,0,4,1,1,0,11,0,0,0,0,0,0,0,0],"split_type":[0,0,0,0,0,0,0,0,0,0,0,0,0,0,0,0,0,0,0,0,0,0,0,0,0],"sum_hessian":[8.158603E1,5.4691124E1,2.6894907E1,3.1092283E1,2.359884E1,1.2060016E0,2.5688904E1,5.957998E0,1.7640842E1,6.672941E0,1.9015963E1,1.665304E0,4.292694E0,1.1484405E1,6.1564374E0,1.0384977E0,5.6344433E0,1.8292732E0,2.4634206E0,4.765932E0,6.718472E0,1.3302665E0,4.826171E0,3.4350672E0,2.1993763E0],"tree_param":{"num_deleted":"0","num_feature":"121","num_nodes":"25","size_leaf_vector":"1"}},{"base_weights":[-5.703279E-2,-6.06244E-1,6.227072E-1,-8.408871E-1,6.8656676E-2,2.1043392E-1,1.9805282E-1,-9.1662574E-1,1.4336109E-1,-2.4197224E-1,4.6399844E-1,-2.1443893E-1,5.836616E-1,-1.8969844E-1,-3.3331927E-2,6.406947E-2,-2.0993939E-2,2.2160044E-1,-6.872636E-1,-9.219538E-2,8.767184E-1,2.7999306E-1,-5.0166166E-1,-8.133431E-2,8.143351E-1,-2.4789538E-2,9.571724E-2,-3.5098713E-2,-1.6560587E-1,2.3231302E-1,4.069715E-2,-3.8533174E-2,1.22579075E-1,-1.4080967E-1,3.9984E-2,1.9527774E-1,-6.359387E-3],"categories":[],"categories_nodes":[],"categories_segments":[],"categories_sizes":[],"default_left":[1,1,0,1,0,0,0,0,0,0,0,0,1,0,0,0,0,0,0,0,0,0,0,0,0,0,0,0,0,0,0,0,0,0,0,0,0],"id":11,"left_children":[1,3,5,7,9,11,-1,13,15,17,19,21,23,-1,-1,-1,-1,25,27,-1,29,31,33,-1,35,-1,-1,-1,-1,-1,-1,-1,-1,-1,-1,-1,-1],"loss_changes":[2.7618914E1,6.529478E0,4.8079014E0,2.3975754E0,1.5205196E0,2.8006973E0,0E0,5.1976204E-1,1.6710134E-1,1.6135681E0,2.4612076E0,1.3648378E0,2.4444585E0,0E0,0E0,0E0,0E0,4.3445528E-1,1.3236225E-1,0E0,5.442364E-1,7.1756154E-1,9.6597207E-1,0E0,1.1055365E0,0E0,0E0,0E0,0E0,0E0,0E0,0E0,0E0,0E0,0E0,0E0,0E0],"parents":[2147483647,0,0,1,1,2,2,3,3,4,4,5,5,7,7,8,8,9,9,10,10,11,11,12,12,17,17,18,18,20,20,21,21,22,22,24,24],"right_children":[2,4,6,8,10,12,-1,14,16,18,20,22,24,-1,-1,-1,-1,26,28,-1,30,32,34,-1,36,-1,-1,-1,-1,-1,-1,-1,-1,-1,-1,-1,-1],"split_conditions":[1.25E-1,7.6E-1,3.8279884E-3,3.2328242E-3,7.380952E-1,9.823009E-1,1.9805282E-1,1E0,8.6725664E-1,8.7E-1,9.292035E-1,6.1904764E-1,5.9E-1,-1.8969844E-1,-3.3331927E-2,6.406947E-2,-2.0993939E-2,6.1904764E-1,9.823009E-1,-9.219538E-2,9.9115044E-1,5.520833E-1,1E0,-8.133431E-2,1E0,-2.4789538E-2,9.571724E-2,-3.5098713E-2,-1.6560587E-1,2.3231302E-1,4.069715E-2,-3.8533174E-2,1.22579075E-1,-1.4080967E-1,3.9984E-2,1.9527774E-1,-6.359387E-3],"split_indices":[0,1,3,3,2,4,0,93,4,1,4,2,1,0,0,0,0,2,4,0,4,0,11,0,4,0,0,0,0,0,0,0,0,0,0,0,0],"split_type":[0,0,0,0,0,0,0,0,0,0,0,0,0,0,0,0,0,0,0,0,0,0,0,0,0,0,0,0,0,0,0,0,0,0,0,0,0],"sum_hessian":[7.197049E1,3.9867096E1,3.2103394E1,2.939973E1,1.0467363E1,1.5872452E1,1.6230944E1,2.7362844E1,2.0368857E0,6.0789433E0,4.3884206E0,7.6216307E0,8.250821E0,2.5993649E1,1.3691964E0,1.0199565E0,1.0169293E0,3.2244558E0,2.8544874E0,1.3178875E0,3.070533E0,2.8098536E0,4.811777E0,1.4146096E0,6.836211E0,1.596055E0,1.6284008E0,1.100435E0,1.7540523E0,1.6479332E0,1.4225998E0,1.3352717E0,1.4745818E0,3.7317545E0,1.0800225E0,5.6081753E0,1.2280363E0],"tree_param":{"num_deleted":"0","num_feature":"121","num_nodes":"37","size_leaf_vector":"1"}},{"base_weights":[-8.159058E-2,-6.112005E-1,5.3456515E-1,-8.143731E-1,-7.548653E-2,1.6164432E-3,8.9073944E-1,-9.3558466E-1,-2.7825108E-1,3.743964E-1,-3.8379547E-1,-1.2595932E-1,1.3521563E-1,4.1745376E-2,1.8511425E-1,-1.9638751E-1,-1.8643837E-2,-5.217633E-1,9.052252E-2,-4.9435627E-2,6.717834E-1,-6.9423735E-1,8.345388E-2,4.7136685E-1,-2.962783E-1,-7.422944E-3,-1.4091828E-1,1.7979227E-1,3.8108006E-2,-6.5268488E-3,-1.8112421E-1,-6.1523028E-2,1.4144908E-1,-1.4813426E-1,1.7183768E-3],"categories":[],"categories_nodes":[],"categories_segments":[],"categories_sizes":[],"default_left":[1,1,0,1,0,1,0,0,1,1,0,0,0,0,0,0,0,0,0,0,0,0,0,0,0,0,0,0,0,0,0,0,0,0,0],"id":12,"left_children":[1,3,5,7,9,11,13,15,17,19,21,-1,23,-1,-1,-1,-1,25,-1,-1,27,29,-1,31,33,-1,-1,-1,-1,-1,-1,-1,-1,-1,-1],"loss_changes":[2.1756592E1,3.833149E0,5.861924E0,1.41893E0,1.661275E0,1.213467E0,2.4660206E-1,7.1486664E-1,1.3375239E0,1.0820312E0,2.0269742E0,0E0,1.8603382E0,0E0,0E0,0E0,0E0,4.2630482E-1,0E0,0E0,2.2455442E-1,7.270713E-1,0E0,1.5137174E0,7.9335296E-1,0E0,0E0,0E0,0E0,0E0,0E0,0E0,0E0,0E0,0E0],"parents":[2147483647,0,0,1,1,2,2,3,3,4,4,5,5,6,6,7,7,8,8,9,9,10,10,12,12,17,17,20,20,21,21,23,23,24,24],"right_children":[2,4,6,8,10,12,14,16,18,20,22,-1,24,-1,-1,-1,-1,26,-1,-1,28,30,-1,32,34,-1,-1,-1,-1,-1,-1,-1,-1,-1,-1],"split_conditions":[1.25E-1,8.2E-1,2.2529804E-3,3.7511185E-4,8.7E-1,5.9E-1,5E-1,1E0,7.619048E-1,6.4285713E-1,7.9761904E-1,-1.2595932E-1,6.770833E-1,4.1745376E-2,1.8511425E-1,-1.9638751E-1,-1.8643837E-2,5.4761904E-1,9.052252E-2,-4.9435627E-2,6.634564E-4,9.380531E-1,8.345388E-2,1.9431915E-4,9.823009E-1,-7.422944E-3,-1.4091828E-1,1.7979227E-1,3.8108006E-2,-6.5268488E-3,-1.8112421E-1,-6.1523028E-2,1.4144908E-1,-1.4813426E-1,1.7183768E-3],"split_indices":[0,1,3,3,1,1,2,52,2,2,2,0,0,0,0,0,0,2,0,0,3,4,0,3,4,0,0,0,0,0,0,0,0,0,0],"split_type":[0,0,0,0,0,0,0,0,0,0,0,0,0,0,0,0,0,0,0,0,0,0,0,0,0,0,0,0,0,0,0,0,0,0,0],"sum_hessian":[6.4670876E1,3.4782234E1,2.9888645E1,2.4840984E1,9.941249E0,1.2375518E1,1.7513128E1,1.9652632E1,5.188351E0,3.9553156E0,5.985933E0,1.5126055E0,1.0862912E1,1.1907365E0,1.6322392E1,1.8470562E1,1.1820704E0,4.106298E0,1.0820535E0,1.334624E0,2.6206915E0,4.410183E0,1.57575E0,6.054109E0,4.808803E0,1.4542668E0,2.6520312E0,1.1906369E0,1.4300547E0,1.3473959E0,3.062787E0,1.3364375E0,4.717672E0,1.3750302E0,3.4337728E0],"tree_param":{"num_deleted":"0","num_feature":"121","num_nodes":"35","size_leaf_vector":"1"}},{"base_weights":[-8.2401104E-2,-3.8450998E-1,8.223716E-1,-7.6529354E-1,-7.44254E-4,-1.1788019E-1,9.909451E-1,-8.806886E-1,5.6792833E-3,-1.5120386E-1,1.07946895E-1,2.0639916E-1,4.828086E-2,-1.9197981E-1,-2.2156013E-2,-1.213776E-1,1.2555985E-1,-1.429349E-1,2.1996701E-1,3.2266222E-3,1.5317811E-1],"categories":[],"categories_nodes":[],"categories_segments":[],"categories_sizes":[],"default_left":[1,1,0,1,0,0,1,1,0,0,0,0,0,0,0,0,0,0,1,0,0],"id":13,"left_children":[1,3,5,7,9,-1,11,13,15,-1,17,-1,-1,-1,-1,-1,-1,-1,19,-1,-1],"loss_changes":[1.6478115E1,6.576526E0,4.182316E0,2.014824E0,2.0039678E0,0E0,1.7793751E-1,1.0923891E0,1.8804641E0,0E0,2.1242654E0,0E0,0E0,0E0,0E0,0E0,0E0,0E0,2.1633995E0,0E0,0E0],"parents":[2147483647,0,0,1,1,2,2,3,3,4,4,6,6,7,7,8,8,10,10,18,18],"right_children":[2,4,6,8,10,-1,12,14,16,-1,18,-1,-1,-1,-1,-1,-1,-1,20,-1,-1],"split_conditions":[3.2328242E-3,7.1E-1,1E0,1E0,1E0,-1.1788019E-1,8.9285713E-1,4.4791666E-1,9.823009E-1,-1.5120386E-1,7.787611E-1,2.0639916E-1,4.828086E-2,-1.9197981E-1,-2.2156013E-2,-1.213776E-1,1.2555985E-1,-1.429349E-1,1.1111492E-3,3.2266222E-3,1.5317811E-1],"split_indices":[3,1,99,12,99,0,2,0,4,0,4,0,0,0,0,0,0,0,3,0,0],"split_type":[0,0,0,0,0,0,0,0,0,0,0,0,0,0,0,0,0,0,0,0,0],"sum_hessian":[5.812751E1,4.4008E1,1.4119507E1,2.1590803E1,2.2417198E1,1.2398216E0,1.2879685E1,1.8656145E1,2.9346592E0,2.070941E0,2.0346256E1,1.185365E1,1.0260353E0,1.6692049E1,1.9640961E0,1.4910188E0,1.4436404E0,1.7937737E0,1.8552483E1,1.4258336E1,4.2941465E0],"tree_param":{"num_deleted":"0","num_feature":"121","num_nodes":"21","size_leaf_vector":"1"}},{"base_weights":[-7.464593E-2,-7.783831E-1,2.2589535E-1,-8.198921E-1,-1.262666E-2,-1.745377E-2,1.6882794E-1,-8.6789244E-1,-5.3747904E-2,-1.6478398E-1,1.1231286E-1,-1.8577392E-1,-5.436636E-2,-1.3700953E-1,1.9790937E-1,5.895965E-2,-1.11555E-1],"categories":[],"categories_nodes":[],"categories_segments":[],"categories_sizes":[],"default_left":[1,1,1,1,0,0,0,0,0,0,0,0,0,0,0,0,0],"id":14,"left_children":[1,3,5,7,-1,9,-1,11,-1,-1,13,-1,-1,-1,15,-1,-1],"loss_changes":[1.1860216E1,4.457569E-1,5.9555564E0,1.8356705E-1,0E0,3.1603348E0,0E0,2.579565E-1,0E0,0E0,1.9190595E0,0E0,0E0,0E0,1.9490137E0,0E0,0E0],"parents":[2147483647,0,0,1,1,2,2,3,3,5,5,7,7,10,10,14,14],"right_children":[2,4,6,8,-1,10,-1,12,-1,-1,14,-1,-1,-1,16,-1,-1],"split_conditions":[2E-2,2.4284946E-3,3.8279884E-3,1E0,-1.262666E-2,8.141593E-1,1.6882794E-1,1E0,-5.3747904E-2,-1.6478398E-1,1E0,-1.8577392E-1,-5.436636E-2,-1.3700953E-1,1E0,5.895965E-2,-1.11555E-1],"split_indices":[1,3,3,20,0,4,0,4,0,0,99,0,0,0,9,0,0],"split_type":[0,0,0,0,0,0,0,0,0,0,0,0,0,0,0,0,0],"sum_hessian":[5.424477E1,1.5757533E1,3.8487236E1,1.4754938E1,1.0025941E0,2.8314173E1,1.0173063E1,1.304422E1,1.7107185E0,3.1830564E0,2.5131117E1,1.13271055E1,1.7171143E0,1.7573732E0,2.3373743E1,2.1258066E1,2.1156774E0],"tree_param":{"num_deleted":"0","num_feature":"121","num_nodes":"17","size_leaf_vector":"1"}},{"base_weights":[-7.536316E-2,-2.925101E-1,7.2092134E-1,-5.8131677E-1,1.6166361E-2,-1.1740162E-1,1.88447E-1,-7.204888E-1,1.8775433E-1,3.5188934E-1,-3.191006E-1,1.2347969E-1,-8.3695674E-1,-1.1723309E-1,1.5528822E-1,4.2903356E-2,6.745094E-1,-4.5377916E-1,6.925805E-2,-3.6672246E-2,7.531126E-2,-5.172036E-2,-1.7733751E-1,9.7321175E-2,-1.1754499E-1,3.30324E-2,1.5601179E-1,-1.3794963E-1,-1.725339E-2],"categories":[],"categories_nodes":[],"categories_segments":[],"categories_sizes":[],"default_left":[1,1,0,1,0,0,0,0,0,1,0,0,0,0,0,0,0,1,0,0,0,0,0,0,0,0,0,0,0],"id":15,"left_children":[1,3,5,7,9,-1,-1,11,13,15,17,19,21,-1,-1,23,25,27,-1,-1,-1,-1,-1,-1,-1,-1,-1,-1,-1],"loss_changes":[9.000968E0,3.633684E0,3.7896442E0,2.3862305E0,2.4336977E0,0E0,0E0,1.8741026E0,2.2847154E0,1.0457386E0,1.1288772E0,3.0635655E-1,2.297039E-1,0E0,0E0,2.125652E0,1.5105009E-1,7.6011E-1,0E0,0E0,0E0,0E0,0E0,0E0,0E0,0E0,0E0,0E0,0E0],"parents":[2147483647,0,0,1,1,2,2,3,3,4,4,7,7,8,8,9,9,10,10,11,11,12,12,15,15,16,16,17,17],"right_children":[2,4,6,8,10,-1,-1,12,14,16,18,20,22,-1,-1,24,26,28,-1,-1,-1,-1,-1,-1,-1,-1,-1,-1,-1],"split_conditions":[3.493456E-3,7.6E-1,1E0,1E0,8.9E-1,-1.1740162E-1,1.88447E-1,4.5833334E-1,9.823009E-1,6.199078E-4,1E0,9.20354E-1,4.4047618E-1,-1.1723309E-1,1.5528822E-1,6.904762E-1,8.495575E-1,6.199078E-4,6.925805E-2,-3.6672246E-2,7.531126E-2,-5.172036E-2,-1.7733751E-1,9.7321175E-2,-1.1754499E-1,3.30324E-2,1.5601179E-1,-1.3794963E-1,-1.725339E-2],"split_indices":[3,1,99,12,1,0,0,0,4,3,30,4,2,0,0,2,4,3,0,0,0,0,0,0,0,0,0,0,0],"split_type":[0,0,0,0,0,0,0,0,0,0,0,0,0,0,0,0,0,0,0,0,0,0,0,0,0,0,0,0,0],"sum_hessian":[4.983601E1,3.9654793E1,1.0181214E1,2.0030458E1,1.9624334E1,1.2343017E0,8.946913E0,1.701464E1,3.015819E0,9.7807255E0,9.843609E0,2.0559914E0,1.4958649E1,1.3047744E0,1.7110447E0,5.5746484E0,4.206077E0,8.451091E0,1.3925188E0,1.0537957E0,1.0021957E0,1.6753103E0,1.3283339E1,3.406356E0,2.1682923E0,1.1622452E0,3.043832E0,4.612643E0,3.8384478E0],"tree_param":{"num_deleted":"0","num_feature":"121","num_nodes":"29","size_leaf_vector":"1"}},{"base_weights":[-7.5454436E-2,-2.7956164E-1,6.6603345E-1,-7.035087E-1,-5.856801E-2,-1.1825001E-1,8.981749E-1,-1.6524617E-1,-3.8374618E-2,-1.5534522E-1,2.459075E-2,1.9515267E-1,5.1338762E-2,-1.0194657E-1,8.8130645E-2,8.20118E-1,-1.217033E-1,-1.4868873E-2,2.3891191E-1,-1.1809989E-1,7.6165353E-4],"categories":[],"categories_nodes":[],"categories_segments":[],"categories_sizes":[],"default_left":[1,1,0,1,0,0,0,0,0,0,1,0,0,0,0,1,0,0,0,0,0],"id":16,"left_children":[1,3,5,7,9,-1,11,-1,13,-1,15,-1,-1,-1,-1,17,19,-1,-1,-1,-1],"loss_changes":[7.472053E0,3.5615704E0,3.6502295E0,1.0364494E0,1.5938573E0,0E0,2.1828985E-1,0E0,9.2165285E-1,0E0,2.962939E0,0E0,0E0,0E0,0E0,1.4119503E0,1.2761666E0,0E0,0E0,0E0,0E0],"parents":[2147483647,0,0,1,1,2,2,3,3,4,4,6,6,8,8,10,10,15,15,16,16],"right_children":[2,4,6,8,10,-1,12,-1,14,-1,16,-1,-1,-1,-1,18,20,-1,-1,-1,-1],"split_conditions":[3.2328242E-3,1.9E-1,1E0,3.7511185E-4,5E-1,-1.1825001E-1,1E0,-1.6524617E-1,8.761062E-1,-1.5534522E-1,5.595238E-1,1.9515267E-1,5.1338762E-2,-1.0194657E-1,8.8130645E-2,3.1473764E-4,7.6E-1,-1.4868873E-2,2.3891191E-1,-1.1809989E-1,7.6165353E-4],"split_indices":[3,1,99,3,2,0,16,0,4,0,2,0,0,0,0,3,1,0,0,0,0],"split_type":[0,0,0,0,0,0,0,0,0,0,0,0,0,0,0,0,0,0,0,0,0],"sum_hessian":[4.7141342E1,3.745436E1,9.686981E0,1.2085856E1,2.5368504E1,1.2687052E0,8.418276E0,9.998801E0,2.0870545E0,1.7671487E0,2.3601357E1,7.0450525E0,1.3732231E0,1.0196406E0,1.0674139E0,2.9505744E0,2.0650782E1,1.1071879E0,1.8433865E0,3.5788262E0,1.7071955E1],"tree_param":{"num_deleted":"0","num_feature":"121","num_nodes":"21","size_leaf_vector":"1"}},{"base_weights":[-1.0097344E-1,-2.7292684E-1,6.671508E-1,-7.981302E-1,-1.0479798E-1,-1.057614E-1,1.7947534E-1,-1.7786793E-1,-1.595309E-2,-1.7096226E-1,4.0781185E-2,1.5162891E-1,-7.132508E-1,-8.950947E-2,6.042851E-2,-1.7508188E-2,-1.8648864E-1],"categories":[],"categories_nodes":[],"categories_segments":[],"categories_sizes":[],"default_left":[1,1,0,1,0,0,0,0,0,0,0,0,1,0,0,0,0],"id":17,"left_children":[1,3,5,7,9,-1,-1,-1,-1,-1,11,13,15,-1,-1,-1,-1],"loss_changes":[6.1453943E0,3.2365115E0,2.8283298E0,5.1656914E-1,3.2704234E0,0E0,0E0,0E0,0E0,0E0,2.262156E0,2.2358556E0,3.9541984E-1,0E0,0E0,0E0,0E0],"parents":[2147483647,0,0,1,1,2,2,3,3,4,4,10,10,11,11,12,12],"right_children":[2,4,6,8,10,-1,-1,-1,-1,-1,12,14,16,-1,-1,-1,-1],"split_conditions":[3.493456E-3,6.499299E-5,1E0,9.2E-1,8.141593E-1,-1.057614E-1,1.7947534E-1,-1.7786793E-1,-1.595309E-2,-1.7096226E-1,1E0,7.6E-1,4.3E-1,-8.950947E-2,6.042851E-2,-1.7508188E-2,-1.8648864E-1],"split_indices":[3,3,99,1,4,0,0,0,0,0,9,1,1,0,0,0,0],"split_type":[0,0,0,0,0,0,0,0,0,0,0,0,0,0,0,0,0],"sum_hessian":[4.4148705E1,3.660005E1,7.548655E0,7.966632E0,2.8633419E1,1.0092071E0,6.539448E0,6.857893E0,1.1087391E0,3.862468E0,2.477095E1,2.2292686E1,2.4782643E0,4.079447E0,1.821324E1,1.0059743E0,1.4722899E0],"tree_param":{"num_deleted":"0","num_feature":"121","num_nodes":"17","size_leaf_vector":"1"}},{"base_weights":[-9.719352E-2,-2.4641399E-1,6.407727E-1,-3.124027E-1,1.4274779E-1,1.454753E-1,1.0625894E-2,-5.962792E-1,-7.7831395E-2,-3.6246127E-1,-1.898195E-1,-1.4984015E-1,1.112405E-1,-1.1737531E-1,6.153531E-2,1.6094428E-1,-1.4671156E-2],"categories":[],"categories_nodes":[],"categories_segments":[],"categories_sizes":[],"default_left":[1,1,0,1,0,0,0,1,0,1,0,0,0,0,0,0,0],"id":18,"left_children":[1,3,5,7,-1,-1,-1,9,11,13,-1,-1,15,-1,-1,-1,-1],"loss_changes":[4.758907E0,2.470749E0,3.3313513E-1,2.2103543E0,0E0,0E0,0E0,9.0857553E-1,2.5848975E0,1.7972155E0,0E0,0E0,2.138923E0,0E0,0E0,0E0,0E0],"parents":[2147483647,0,0,1,1,2,2,3,3,7,7,8,8,9,9,12,12],"right_children":[2,4,6,8,-1,-1,-1,10,12,14,-1,-1,16,-1,-1,-1,-1],"split_conditions":[3.493456E-3,1E0,9.479167E-1,2.820762E-4,1.4274779E-1,1.454753E-1,1.0625894E-2,1.1942875E-4,8.584071E-1,7.917928E-5,-1.898195E-1,-1.4984015E-1,3.863289E-4,-1.1737531E-1,6.153531E-2,1.6094428E-1,-1.4671156E-2],"split_indices":[3,15,0,3,0,0,0,3,4,3,0,0,3,0,0,0,0],"split_type":[0,0,0,0,0,0,0,0,0,0,0,0,0,0,0,0,0],"sum_hessian":[4.0781925E1,3.447666E1,6.305263E0,3.2890797E1,1.5858631E0,5.2881393E0,1.0171238E0,1.4183741E1,1.8707058E1,9.749761E0,4.43398E0,3.4596786E0,1.5247379E1,7.3969274E0,2.3528326E0,2.499193E0,1.2748187E1],"tree_param":{"num_deleted":"0","num_feature":"121","num_nodes":"17","size_leaf_vector":"1"}},{"base_weights":[-6.380823E-2,-1.7539592E-1,7.901461E-2,-2.1530949E-1,4.535219E-1,-7.2232294E-1,4.3057192E-2,2.2124241E-1,1.6867232E-1,-1.6497508E-1,-4.208698E-2,4.1428548E-1,-1.9744909E-1,-1.2857933E-1,4.0639204E-1,-5.7567425E-2,1.3577804E-1,3.54703E-2,-1.417184E-1,1.5746895E-2,1.5956214E-1],"categories":[],"categories_nodes":[],"categories_segments":[],"categories_sizes":[],"default_left":[1,0,1,1,0,0,0,0,0,0,0,1,0,0,0,0,0,0,0,0,0],"id":19,"left_children":[1,-1,3,5,7,9,11,13,-1,-1,-1,15,17,-1,19,-1,-1,-1,-1,-1,-1],"loss_changes":[4.803256E0,0E0,4.0204754E0,2.730361E0,1.2607036E0,1.9451857E-1,1.3847649E0,2.080587E0,0E0,0E0,0E0,1.3213309E0,1.9520366E0,0E0,1.2167907E0,0E0,0E0,0E0,0E0,0E0,0E0],"parents":[2147483647,0,0,2,2,3,3,4,4,5,5,6,6,7,7,11,11,12,12,14,14],"right_children":[2,-1,4,6,8,10,12,14,-1,-1,-1,16,18,-1,20,-1,-1,-1,-1,-1,-1],"split_conditions":[1E0,-1.7539592E-1,8.541465E-4,5.9E-1,3.493456E-3,1E0,8.4E-1,8.141593E-1,1.6867232E-1,-1.6497508E-1,-4.208698E-2,1.17449265E-4,1E0,-1.2857933E-1,7.0238096E-1,-5.7567425E-2,1.3577804E-1,3.54703E-2,-1.417184E-1,1.5746895E-2,1.5956214E-1],"split_indices":[99,0,3,1,3,12,1,4,0,0,0,3,18,0,2,0,0,0,0,0,0],"split_type":[0,0,0,0,0,0,0,0,0,0,0,0,0,0,0,0,0,0,0,0,0],"sum_hessian":[3.9761017E1,5.1722326E0,3.4588783E1,1.9605764E1,1.498302E1,6.012071E0,1.3593693E1,1.0371097E1,4.6119237E0,4.499248E0,1.5128232E0,5.060347E0,8.533345E0,1.3937608E0,8.977336E0,1.3610449E0,3.699302E0,5.3000565E0,3.233289E0,5.5405107E0,3.4368248E0],"tree_param":{"num_deleted":"0","num_feature":"121","num_nodes":"21","size_leaf_vector":"1"}},{"base_weights":[-1.3873345E-1,-6.087044E-1,1.0719398E-1,-1.7867343E-1,-2.0067391E-1,-1.5000542E-1,2.2513978E-1,3.2441935E-1,-6.719108E-1,5.7603117E-2,1.6439964E-1,-3.584404E-2,1.1834196E-1,-2.0348445E-2,-1.6729702E-1,-1.4707308E-1,1.8921706E-1,-6.3469186E-3,1.2209316E-1],"categories":[],"categories_nodes":[],"categories_segments":[],"categories_sizes":[],"default_left":[1,1,0,0,0,0,0,0,1,0,0,0,0,0,0,0,0,0,0],"id":20,"left_children":[1,3,5,-1,7,-1,9,11,13,15,-1,-1,-1,-1,-1,-1,17,-1,-1],"loss_changes":[4.519873E0,1.3759584E0,2.8129895E0,0E0,1.8986727E0,0E0,2.328366E0,6.2929636E-1,2.8134847E-1,2.1874595E0,0E0,0E0,0E0,0E0,0E0,0E0,1.6600986E0,0E0,0E0],"parents":[2147483647,0,0,1,1,2,2,4,4,6,6,7,7,8,8,9,9,16,16],"right_children":[2,4,6,-1,8,-1,10,12,14,16,-1,-1,-1,-1,-1,-1,18,-1,-1],"split_conditions":[2.820762E-4,7.7E-1,1E0,-1.7867343E-1,1.10521076E-4,-1.5000542E-1,3.493456E-3,7.380952E-1,6.1904764E-1,8.141593E-1,1.6439964E-1,-3.584404E-2,1.1834196E-1,-2.0348445E-2,-1.6729702E-1,-1.4707308E-1,1E0,-6.3469186E-3,1.2209316E-1],"split_indices":[3,1,99,0,3,0,3,2,2,4,0,0,0,0,0,0,11,0,0],"split_type":[0,0,0,0,0,0,0,0,0,0,0,0,0,0,0,0,0,0,0],"sum_hessian":[3.7541893E1,1.2389752E1,2.5152142E1,6.597524E0,5.7922287E0,2.3939579E0,2.2758183E1,2.886924E0,2.9053047E0,1.862633E1,4.1318536E0,1.1151692E0,1.7717549E0,1.0132179E0,1.8920866E0,1.9984515E0,1.6627878E1,1.151352E1,5.114358E0],"tree_param":{"num_deleted":"0","num_feature":"121","num_nodes":"19","size_leaf_vector":"1"}},{"base_weights":[5.0123945E-2,-4.2870265E-1,1.9145775E-1,-1.4318796E-1,1.3554427E-1,-1.2637709E-1,2.6539612E-1,1.0190993E-1,-4.2771537E-2,-8.087394E-2,4.6802047E-1,4.3025225E-1,-4.043825E-1,-4.914419E-2,5.546795E-1,1.3534383E-1,2.7541395E-3,5.804664E-2,-1.3163128E-1,4.8080545E-2,1.6162002E-1],"categories":[],"categories_nodes":[],"categories_segments":[],"categories_sizes":[],"default_left":[1,0,0,0,0,0,0,0,0,0,0,0,0,0,1,0,0,0,0,0,0],"id":21,"left_children":[1,3,5,-1,7,-1,9,-1,-1,11,13,15,17,-1,19,-1,-1,-1,-1,-1,-1],"loss_changes":[2.357028E0,1.3887267E0,1.7898386E0,0E0,5.701763E-1,0E0,1.8027812E0,0E0,0E0,1.8504347E0,1.1269364E0,4.4379967E-1,1.3763473E0,0E0,9.6767426E-1,0E0,0E0,0E0,0E0,0E0,0E0],"parents":[2147483647,0,0,1,1,2,2,4,4,6,6,9,9,10,10,11,11,12,12,14,14],"right_children":[2,4,6,-1,8,-1,10,-1,-1,12,14,16,18,-1,20,-1,-1,-1,-1,-1,-1],"split_conditions":[1.8E-1,9.9115044E-1,1E0,-1.4318796E-1,7.619048E-1,-1.2637709E-1,6.4285713E-1,1.0190993E-1,-4.2771537E-2,5.9375E-1,7.345133E-1,9.9115044E-1,9.026549E-1,-4.914419E-2,6.199078E-4,1.3534383E-1,2.7541395E-3,5.804664E-2,-1.3163128E-1,4.8080545E-2,1.6162002E-1],"split_indices":[1,4,99,0,2,0,2,0,0,0,4,4,4,0,3,0,0,0,0,0,0],"split_type":[0,0,0,0,0,0,0,0,0,0,0,0,0,0,0,0,0,0,0,0,0],"sum_hessian":[3.2616108E1,6.9697933E0,2.5646317E1,4.440473E0,2.5293205E0,1.4915045E0,2.4154812E1,1.0002688E0,1.5290515E0,9.138558E0,1.5016253E1,3.4142575E0,5.7243004E0,1.4270762E0,1.3589177E1,1.7523804E0,1.6618773E0,1.493288E0,4.2310123E0,6.9360905E0,6.6530867E0],"tree_param":{"num_deleted":"0","num_feature":"121","num_nodes":"21","size_leaf_vector":"1"}},{"base_weights":[-5.6646004E-2,-3.4284222E-1,2.4540408E-1,-7.5375724E-1,-6.93538E-2,-1.1820587E-1,3.5735503E-1,-3.8057778E-2,-1.8011665E-1,-4.1839704E-1,6.4289445E-1,1.1841914E-1,8.7387425E-1,-5.967949E-1,2.662137E-2,-7.082477E-3,1.7748244E-1,3.1311762E-1,-4.7420108E-1,6.598588E-2,2.1356212E-1,2.54766E-2,-1.5675552E-1,-3.4155466E-3,1.2812738E-1,1.40590845E-2,-1.5351094E-1],"categories":[],"categories_nodes":[],"categories_segments":[],"categories_sizes":[],"default_left":[1,0,0,0,1,0,0,0,0,1,1,0,0,0,0,0,0,1,0,0,0,0,0,0,0,0,0],"id":22,"left_children":[1,3,5,7,9,-1,11,-1,-1,13,15,17,19,21,-1,-1,-1,23,25,-1,-1,-1,-1,-1,-1,-1,-1],"loss_changes":[2.8433468E0,1.8364515E0,1.7199217E0,3.7586522E-1,3.051367E0,0E0,1.7271585E0,0E0,0E0,8.780315E-1,7.073146E-1,1.4521286E0,1.2606764E-1,9.5499325E-1,0E0,0E0,0E0,9.9579513E-1,5.637731E-1,0E0,0E0,0E0,0E0,0E0,0E0,0E0,0E0],"parents":[2147483647,0,0,1,1,2,2,3,3,4,4,6,6,9,9,10,10,11,11,12,12,13,13,17,17,18,18],"right_children":[2,4,6,8,10,-1,12,-1,-1,14,16,18,20,22,-1,-1,-1,24,26,-1,-1,-1,-1,-1,-1,-1,-1],"split_conditions":[6.199078E-4,9.734513E-1,1E0,8.4E-1,1E0,-1.1820587E-1,7.2619045E-1,-3.8057778E-2,-1.8011665E-1,1E0,1.6825597E-5,9.2E-1,9.1150445E-1,7.1875E-1,2.662137E-2,-7.082477E-3,1.7748244E-1,5.208333E-1,1E0,6.598588E-2,2.1356212E-1,2.54766E-2,-1.5675552E-1,-3.4155466E-3,1.2812738E-1,1.40590845E-2,-1.5351094E-1],"split_indices":[3,4,99,1,12,0,2,0,0,7,3,1,4,0,0,0,0,0,7,0,0,0,0,0,0,0,0],"split_type":[0,0,0,0,0,0,0,0,0,0,0,0,0,0,0,0,0,0,0,0,0,0,0,0,0,0,0],"sum_hessian":[3.0918482E1,1.5806539E1,1.5111943E1,5.6145787E0,1.019196E1,1.2787197E0,1.3833224E1,1.6352111E0,3.9793675E0,7.116854E0,3.075106E0,1.0298513E1,3.5347104E0,5.3153477E0,1.8015066E0,1.0413935E0,2.0337124E0,8.106768E0,2.1917455E0,1.6389822E0,1.8957282E0,1.1561931E0,4.1591544E0,4.5088916E0,3.597876E0,1.0336152E0,1.1581304E0],"tree_param":{"num_deleted":"0","num_feature":"121","num_nodes":"27","size_leaf_vector":"1"}},{"base_weights":[-4.7458757E-2,-3.774961E-1,2.896218E-1,-6.465091E-2,-6.166515E-1,-1.1230544E-1,3.9548448E-1,-5.186985E-1,3.0394828E-1,-1.938955E-1,-1.4823462E-1,-5.94483E-2,4.94782E-1,-1.3344552E-1,-1.00114355E-2,1.5750495E-1,-1.2144315E-1,-1.309409E-1,2.9107875E-1,-3.087814E-2,6.031987E-1,5.9218373E-2,-8.1712626E-2,-4.9422834E-2,1.4493327E-1,1.8140443E-1,4.7571596E-2],"categories":[],"categories_nodes":[],"categories_segments":[],"categories_sizes":[],"default_left":[1,0,0,0,0,0,0,1,0,0,1,0,0,0,0,0,0,0,0,0,0,0,0,0,0,0,0],"id":23,"left_children":[1,3,5,7,9,-1,11,13,15,-1,17,-1,19,-1,-1,-1,21,-1,23,-1,25,-1,-1,-1,-1,-1,-1],"loss_changes":[3.5315356E0,1.1555345E0,1.6443164E0,1.5031329E0,1.3334699E0,0E0,1.1530654E0,2.4305236E-1,1.1381152E0,0E0,1.3076229E0,0E0,1.0198185E0,0E0,0E0,0E0,5.48048E-1,0E0,9.679792E-1,0E0,1.0592227E0,0E0,0E0,0E0,0E0,0E0,0E0],"parents":[2147483647,0,0,1,1,2,2,3,3,4,4,6,6,7,7,8,8,10,10,12,12,16,16,18,18,20,20],"right_children":[2,4,6,8,10,-1,12,14,16,-1,18,-1,20,-1,-1,-1,22,-1,24,-1,26,-1,-1,-1,-1,-1,-1],"split_conditions":[6.199078E-4,1.5011072E-4,1E0,6.499299E-5,9.9115044E-1,-1.1230544E-1,6.814159E-1,8.6E-1,8.841686E-5,-1.938955E-1,2.8801462E-4,-5.94483E-2,5E-1,-1.3344552E-1,-1.00114355E-2,1.5750495E-1,8.6E-1,-1.309409E-1,6.979167E-1,-3.087814E-2,1E0,5.9218373E-2,-8.1712626E-2,-4.9422834E-2,1.4493327E-1,1.8140443E-1,4.7571596E-2],"split_indices":[3,3,99,3,4,0,4,1,3,0,3,0,2,0,0,0,1,0,0,0,18,0,0,0,0,0,0],"split_type":[0,0,0,0,0,0,0,0,0,0,0,0,0,0,0,0,0,0,0,0,0,0,0,0,0,0,0],"sum_hessian":[2.9761616E1,1.4977333E1,1.4784284E1,7.039333E0,7.9379997E0,1.1592745E0,1.3625009E1,2.9716194E0,4.0677137E0,3.9175162E0,4.0204835E0,1.4582722E0,1.2166737E1,1.9346967E0,1.0369227E0,1.5052648E0,2.562449E0,1.6397638E0,2.38072E0,1.6804667E0,1.048627E1,1.0313677E0,1.5310813E0,1.2541146E0,1.1266053E0,4.9156556E0,5.5706143E0],"tree_param":{"num_deleted":"0","num_feature":"121","num_nodes":"27","size_leaf_vector":"1"}},{"base_weights":[-4.9204502E-2,-1.5803081E-1,8.246281E-2,-1.4370543E-2,1.8259299E-1,2.6684788E-1,-3.6331046E-1,-1.2863858E-1,4.3959475E-1,-5.562271E-1,2.858311E-1,-9.429312E-2,9.440596E-2,7.4294144E-3,1.1431956E-1,-1.434068E-1,-2.0027557E-2,-1.5334877E-2,9.869792E-2],"categories":[],"categories_nodes":[],"categories_segments":[],"categories_sizes":[],"default_left":[1,0,0,0,0,0,1,0,0,0,0,0,0,0,0,0,0,0,0],"id":24,"left_children":[1,-1,3,5,-1,7,9,11,13,15,17,-1,-1,-1,-1,-1,-1,-1,-1],"loss_changes":[2.895781E0,0E0,2.0672216E0,2.4382372E0,0E0,9.9855363E-1,1.5454272E0,1.2450396E0,5.006052E-1,5.790491E-1,2.7849728E-1,0E0,0E0,0E0,0E0,0E0,0E0,0E0,0E0],"parents":[2147483647,0,0,2,2,3,3,5,5,6,6,7,7,8,8,9,9,10,10],"right_children":[2,-1,4,6,-1,8,10,12,14,16,18,-1,-1,-1,-1,-1,-1,-1,-1],"split_conditions":[6.499299E-5,-1.5803081E-1,1E0,8.9E-1,1.8259299E-1,9.026549E-1,8.020833E-1,3.2328242E-3,5.833333E-1,1E0,2.916437E-4,-9.429312E-2,9.440596E-2,7.4294144E-3,1.1431956E-1,-1.434068E-1,-2.0027557E-2,-1.5334877E-2,9.869792E-2],"split_indices":[3,0,15,1,0,4,0,3,2,11,3,0,0,0,0,0,0,0,0],"split_type":[0,0,0,0,0,0,0,0,0,0,0,0,0,0,0,0,0,0,0],"sum_hessian":[2.8014523E1,3.4724405E0,2.4542082E1,2.2859455E1,1.6826277E0,1.2788322E1,1.0071133E1,3.9653618E0,8.822961E0,7.874165E0,2.1969674E0,2.6614547E0,1.3039072E0,2.4956608E0,6.3272996E0,5.398604E0,2.4755611E0,1.0298847E0,1.1670827E0],"tree_param":{"num_deleted":"0","num_feature":"121","num_nodes":"19","size_leaf_vector":"1"}},{"base_weights":[-1.4415534E-2,-8.406759E-2,5.799698E-1,2.941342E-2,-7.168605E-1,1.727725E-2,1.6816688E-1,-6.826538E-2,5.158934E-1,-2.0822266E-1,-1.5406166E-3,1.324515E-1,-3.8007107E-1,-4.9567264E-2,2.0936882E-1,-2.3074782E-2,6.794198E-2,-1.1325767E-1,5.963982E-2],"categories":[],"categories_nodes":[],"categories_segments":[],"categories_sizes":[],"default_left":[1,1,0,1,0,0,0,0,0,0,0,0,1,0,0,0,0,0,0],"id":25,"left_children":[1,3,5,7,9,-1,-1,11,13,-1,-1,15,17,-1,-1,-1,-1,-1,-1],"loss_changes":[1.2874097E0,2.006931E0,3.4774196E-1,1.1951308E0,9.680109E-1,0E0,0E0,1.3778318E0,1.9619304E0,0E0,0E0,7.400989E-1,1.2507054E0,0E0,0E0,0E0,0E0,0E0,0E0],"parents":[2147483647,0,0,1,1,2,2,3,3,4,4,7,7,8,8,11,11,12,12],"right_children":[2,4,6,8,10,-1,-1,12,14,-1,-1,16,18,-1,-1,-1,-1,-1,-1],"split_conditions":[1E0,7.8571427E-1,7.1428573E-1,1E0,9.244181E-4,1.727725E-2,1.6816688E-1,8.9E-1,9.734513E-1,-2.0822266E-1,-1.5406166E-3,7.6E-1,1E0,-4.9567264E-2,2.0936882E-1,-2.3074782E-2,6.794198E-2,-1.1325767E-1,5.963982E-2],"split_indices":[15,2,2,12,3,0,0,1,4,0,0,1,20,0,0,0,0,0,0],"split_type":[0,0,0,0,0,0,0,0,0,0,0,0,0,0,0,0,0,0,0],"sum_hessian":[2.8919037E1,2.6654177E1,2.264861E0,2.3409573E1,3.2446039E0,1.2433892E0,1.0214717E0,2.0211119E1,3.1984527E0,1.905322E0,1.339282E0,1.2645875E1,7.5652447E0,1.5303662E0,1.6680865E0,5.9612055E0,6.6846695E0,6.065168E0,1.5000767E0],"tree_param":{"num_deleted":"0","num_feature":"121","num_nodes":"19","size_leaf_vector":"1"}},{"base_weights":[-2.88888E-2,-9.476356E-2,1.7982073E-1,-4.880178E-1,7.9997405E-2,-1.5851633E-1,-1.4841683E-1,3.6419147E-1,-2.298135E-1,1.992805E-1,-9.836876E-2,5.5429703E-1,-7.56627E-2,-3.8244233E-1,5.1163293E-2,9.419214E-2,-3.381895E-2,-4.132419E-2,1.6219835E-1,4.1163128E-2,-9.855122E-2],"categories":[],"categories_nodes":[],"categories_segments":[],"categories_sizes":[],"default_left":[0,1,0,1,0,0,0,0,1,0,0,0,0,0,0,0,0,0,0,0,0],"id":26,"left_children":[1,3,-1,5,7,-1,9,11,13,15,-1,17,-1,19,-1,-1,-1,-1,-1,-1,-1],"loss_changes":[1.8537383E0,1.9576674E0,0E0,7.85326E-1,1.8611007E0,0E0,7.378113E-1,1.7505026E0,8.5916173E-1,4.1732037E-1,0E0,1.9442911E0,0E0,6.34575E-1,0E0,0E0,0E0,0E0,0E0,0E0,0E0],"parents":[2147483647,0,0,1,1,3,3,4,4,6,6,7,7,8,8,9,9,11,11,13,13],"right_children":[2,4,-1,6,8,-1,10,12,14,16,-1,18,-1,20,-1,-1,-1,-1,-1,-1,-1],"split_conditions":[1E0,1.9431915E-4,1.7982073E-1,7.7E-1,1E0,-1.5851633E-1,1.10521076E-4,1E0,7.083333E-1,7.7380955E-1,-9.836876E-2,6.9E-1,-7.56627E-2,5.833333E-1,5.1163293E-2,9.419214E-2,-3.381895E-2,-4.132419E-2,1.6219835E-1,4.1163128E-2,-9.855122E-2],"split_indices":[52,3,0,1,18,0,3,4,0,2,0,1,0,2,0,0,0,0,0,0,0],"split_type":[0,0,0,0,0,0,0,0,0,0,0,0,0,0,0,0,0,0,0,0,0],"sum_hessian":[2.7930132E1,2.6917257E1,1.0128738E0,7.7301264E0,1.9187132E1,3.3720837E0,4.3580427E0,9.915746E0,9.271386E0,2.3741255E0,1.9839175E0,8.096304E0,1.8194414E0,7.215961E0,2.0554252E0,1.2061198E0,1.1680056E0,2.091515E0,6.004789E0,1.0027862E0,6.213175E0],"tree_param":{"num_deleted":"0","num_feature":"121","num_nodes":"21","size_leaf_vector":"1"}},{"base_weights":[6.4098015E-2,-4.575646E-1,1.2999442E-1,-1.8022914E-3,-1.2676986E-1,-4.3293354E-1,2.2880647E-1,-1.419882E-1,1.4653099E-2,7.471509E-1,9.279995E-2,7.908651E-2,2.626338E-1,-7.4133775E-3,1.3391009E-1,-1.0351177E-1,1.2056571E-1,2.3020728E-2,-1.137315E-1],"categories":[],"categories_nodes":[],"categories_segments":[],"categories_sizes":[],"default_left":[1,1,1,0,0,1,1,0,0,0,0,0,0,0,0,0,0,0,0],"id":27,"left_children":[1,3,5,-1,-1,7,9,-1,-1,11,13,15,-1,17,-1,-1,-1,-1,-1],"loss_changes":[1.0739136E0,2.7348673E-1,1.5997553E0,0E0,0E0,6.6539013E-1,1.5947703E0,0E0,0E0,1.6977594E0,1.1517051E0,1.3273753E0,0E0,1.2957759E0,0E0,0E0,0E0,0E0,0E0],"parents":[2147483647,0,0,1,1,2,2,5,5,6,6,9,9,10,10,11,11,13,13],"right_children":[2,4,6,-1,-1,8,10,-1,-1,12,14,16,-1,18,-1,-1,-1,-1,-1],"split_conditions":[1E0,6.1904764E-1,7.917928E-5,-1.8022914E-3,-1.2676986E-1,8.6E-1,3.9E-1,-1.419882E-1,1.4653099E-2,9.823009E-1,3.493456E-3,2.4284946E-3,2.626338E-1,2.4284946E-3,1.3391009E-1,-1.0351177E-1,1.2056571E-1,2.3020728E-2,-1.137315E-1],"split_indices":[99,2,3,0,0,1,1,0,0,4,3,3,0,3,0,0,0,0,0],"split_type":[0,0,0,0,0,0,0,0,0,0,0,0,0,0,0,0,0,0,0],"sum_hessian":[2.8510178E1,2.5308948E0,2.5979284E1,1.0105888E0,1.5203059E0,3.3743536E0,2.260493E1,1.9207611E0,1.4535927E0,3.764453E0,1.8840477E1,2.2493255E0,1.5151275E0,1.6892471E1,1.9480063E0,1.0569999E0,1.1923256E0,1.4518141E1,2.37433E0],"tree_param":{"num_deleted":"0","num_feature":"121","num_nodes":"19","size_leaf_vector":"1"}},{"base_weights":[-1.65223E-2,-7.2464556E-2,1.4537928E-1,-1.4021203E-1,6.8328334E-3,-8.535878E-2,1.383006E-1,1.4131545E-2,-1.3692515E-1,7.133179E-2,-3.7178546E-2],"categories":[],"categories_nodes":[],"categories_segments":[],"categories_sizes":[],"default_left":[0,0,0,0,1,1,0,0,0,0,0],"id":28,"left_children":[1,3,-1,-1,5,7,-1,9,-1,-1,-1],"loss_changes":[1.249682E0,1.3843892E0,0E0,0E0,1.6728497E0,1.4061971E0,0E0,1.5097461E0,0E0,0E0,0E0],"parents":[2147483647,0,0,1,1,4,4,5,5,7,7],"right_children":[2,4,-1,-1,6,8,-1,10,-1,-1,-1],"split_conditions":[1E0,1E0,1.4537928E-1,-1.4021203E-1,3.493456E-3,7.8571427E-1,1.383006E-1,3.863289E-4,-1.3692515E-1,7.133179E-2,-3.7178546E-2],"split_indices":[52,99,0,0,3,2,0,3,0,0,0],"split_type":[0,0,0,0,0,0,0,0,0,0,0],"sum_hessian":[2.7782167E1,2.667723E1,1.1049364E0,2.1100252E0,2.4567205E1,2.2423222E1,2.1439838E0,2.0067957E1,2.3552644E0,7.109818E0,1.2958138E1],"tree_param":{"num_deleted":"0","num_feature":"121","num_nodes":"11","size_leaf_vector":"1"}},{"base_weights":[-1.3934961E-1,2.2293201E-1,-2.934638E-1,-2.964069E-1,4.9530432E-1,-4.257184E-1,5.298676E-2,-1.3360685E-1,7.014129E-2,8.228198E-1,-6.1310053E-2,-5.198844E-1,6.0227405E-2,4.368878E-1,-9.212171E-2,4.469962E-2,1.9014907E-1,-5.824911E-1,1.9691154E-2,-9.5555335E-3,1.8469046E-1,-6.799622E-2,-1.7900875E-1,7.219373E-2,-8.0931716E-2],"categories":[],"categories_nodes":[],"categories_segments":[],"categories_sizes":[],"default_left":[0,0,1,0,0,0,0,0,0,1,0,1,0,0,0,0,0,1,0,0,0,0,0,0,0],"id":29,"left_children":[1,3,5,7,9,11,13,-1,-1,15,-1,17,-1,19,-1,-1,-1,21,-1,23,-1,-1,-1,-1,-1],"loss_changes":[1.6767719E0,1.4455554E0,9.7005725E-1,1.14435E0,1.9322469E0,1.1884677E0,1.503025E0,0E0,0E0,1.565466E-1,0E0,5.8825326E-1,0E0,9.41028E-1,0E0,0E0,0E0,6.505799E-1,0E0,6.1859685E-1,0E0,0E0,0E0,0E0,0E0],"parents":[2147483647,0,0,1,1,2,2,3,3,4,4,5,5,6,6,9,9,11,11,13,13,17,17,19,19],"right_children":[2,4,6,8,10,12,14,-1,-1,16,-1,18,-1,20,-1,-1,-1,22,-1,24,-1,-1,-1,-1,-1],"split_conditions":[9.20354E-1,8.318584E-1,7.380952E-1,3.493456E-3,7.1428573E-1,4.678176E-3,7.8571427E-1,-1.3360685E-1,7.014129E-2,4.5E-1,-6.1310053E-2,7.604167E-1,6.0227405E-2,7.848646E-4,-9.212171E-2,4.469962E-2,1.9014907E-1,8.5E-1,1.9691154E-2,1.2965607E-4,1.8469046E-1,-6.799622E-2,-1.7900875E-1,7.219373E-2,-8.0931716E-2],"split_indices":[4,4,2,3,2,3,2,0,0,1,0,0,0,3,0,0,0,1,0,3,0,0,0,0,0],"split_type":[0,0,0,0,0,0,0,0,0,0,0,0,0,0,0,0,0,0,0,0,0,0,0,0,0],"sum_hessian":[2.7860296E1,8.1814165E0,1.9678879E1,2.784294E0,5.3971224E0,1.4076495E1,5.602384E0,1.7480726E0,1.0362213E0,3.813402E0,1.5837206E0,1.27141E1,1.3623955E0,3.2914517E0,2.3109326E0,1.1540159E0,2.6593862E0,1.1597802E1,1.1162972E0,2.2277546E0,1.0636971E0,7.7062607E0,3.891542E0,1.1942195E0,1.033535E0],"tree_param":{"num_deleted":"0","num_feature":"121","num_nodes":"25","size_leaf_vector":"1"}},{"base_weights":[-3.3035904E-2,-1.3729794E-1,4.7509756E-2,1.6555753E-1,-3.3518616E-2,8.8057116E-2,-3.505009E-1,-1.3420788E-2,5.2430457E-1,-4.931587E-1,3.401255E-2,-3.9715465E-2,5.6592274E-2,-7.5035626E-3,1.6913283E-1,-1.9771808E-3,-1.2412324E-1],"categories":[],"categories_nodes":[],"categories_segments":[],"categories_sizes":[],"default_left":[0,0,0,0,1,1,0,1,0,0,0,0,0,0,0,0,0],"id":30,"left_children":[1,-1,3,-1,5,7,9,11,13,15,-1,-1,-1,-1,-1,-1,-1],"loss_changes":[1.4298646E0,0E0,1.5811262E0,0E0,9.256601E-1,7.853583E-1,5.7678246E-1,8.924386E-1,6.352739E-1,3.3056355E-1,0E0,0E0,0E0,0E0,0E0,0E0,0E0],"parents":[2147483647,0,0,2,2,4,4,5,5,6,6,7,7,8,8,9,9],"right_children":[2,-1,4,-1,6,8,10,12,14,16,-1,-1,-1,-1,-1,-1,-1],"split_conditions":[6.6972476E-5,-1.3729794E-1,8.841686E-5,1.6555753E-1,8.9E-1,1E0,7.9761904E-1,2.0873637E-3,7.9E-1,9.380531E-1,3.401255E-2,-3.9715465E-2,5.6592274E-2,-7.5035626E-3,1.6913283E-1,-1.9771808E-3,-1.2412324E-1],"split_indices":[3,0,3,0,1,12,2,3,1,4,0,0,0,0,0,0,0],"split_type":[0,0,0,0,0,0,0,0,0,0,0,0,0,0,0,0,0],"sum_hessian":[2.5547094E1,1.9778811E0,2.3569214E1,1.350293E0,2.2218922E1,1.6581453E1,5.637467E0,1.4238577E1,2.3428774E0,4.466179E0,1.1712883E0,8.966808E0,5.2717686E0,1.1738781E0,1.1689994E0,1.1569616E0,3.3092172E0],"tree_param":{"num_deleted":"0","num_feature":"121","num_nodes":"17","size_leaf_vector":"1"}},{"base_weights":[7.417675E-2,-3.6034784E-1,1.3100374E-1,-1.1828061E-1,1.4318414E-2,2.0495653E-1,-3.4857365E-1,-1.3732277E-1,2.996098E-1,4.7327906E-2,-1.3700382E-1,5.628729E-2,-4.7347146E-1,8.553453E-2,5.4818785E-1,-1.9132953E-2,-1.20304964E-1,-2.5002493E-2,1.5259181E-1,1.4387423E-1,-5.3546648E-3],"categories":[],"categories_nodes":[],"categories_segments":[],"categories_sizes":[],"default_left":[0,1,0,0,0,0,0,1,0,0,0,0,0,0,0,0,0,0,0,0,0],"id":31,"left_children":[1,3,5,-1,-1,7,9,11,13,-1,-1,-1,15,17,19,-1,-1,-1,-1,-1,-1],"loss_changes":[7.294792E-1,3.878751E-1,9.6406335E-1,0E0,0E0,7.6800495E-1,8.970637E-1,9.139284E-1,9.050927E-1,0E0,0E0,0E0,1.0932696E-1,1.6353116E0,8.1578636E-1,0E0,0E0,0E0,0E0,0E0,0E0],"parents":[2147483647,0,0,1,1,2,2,5,5,6,6,7,7,8,8,12,12,13,13,14,14],"right_children":[2,4,6,-1,-1,8,10,12,14,-1,-1,-1,16,18,20,-1,-1,-1,-1,-1,-1],"split_conditions":[8.141593E-1,3.2328242E-3,1E0,-1.1828061E-1,1.4318414E-2,7.6E-1,5.9375E-1,5.595238E-1,6.199078E-4,4.7327906E-2,-1.3700382E-1,5.628729E-2,5.520833E-1,1E0,1E0,-1.9132953E-2,-1.20304964E-1,-2.5002493E-2,1.5259181E-1,1.4387423E-1,-5.3546648E-3],"split_indices":[4,3,9,0,0,1,0,2,3,0,0,0,0,7,7,0,0,0,0,0,0],"split_type":[0,0,0,0,0,0,0,0,0,0,0,0,0,0,0,0,0,0,0,0,0],"sum_hessian":[2.6630503E1,2.4622092E0,2.4168293E1,1.3636045E0,1.0986046E0,2.1435486E1,2.7328084E0,4.5459404E0,1.6889545E1,1.1058831E0,1.6269253E0,2.0967116E0,2.4492288E0,9.796715E0,7.09283E0,1.0622507E0,1.3869781E0,8.095921E0,1.700794E0,5.2720246E0,1.8208052E0],"tree_param":{"num_deleted":"0","num_feature":"121","num_nodes":"21","size_leaf_vector":"1"}},{"base_weights":[-7.098272E-2,-3.5750088E-1,5.826785E-2,-9.97725E-2,-1.6501825E-1,1.2940982E-1,-3.3373844E-2,-1.2257536E-1,1.5372859E-1,-1.10517435E-1,8.3295114E-2,6.1944926E-1,-8.275062E-2,1.8264158E-1,-3.0630022E-1,2.1947394E-1,-2.1977998E-2,-5.276198E-2,6.8004996E-2,-1.3684416E-1,3.3505574E-2],"categories":[],"categories_nodes":[],"categories_segments":[],"categories_sizes":[],"default_left":[0,1,0,0,0,0,0,0,1,0,0,0,0,0,1,0,0,0,0,0,0],"id":32,"left_children":[1,3,5,7,-1,-1,9,-1,11,-1,13,15,-1,17,19,-1,-1,-1,-1,-1,-1],"loss_changes":[9.9646187E-1,9.2155004E-1,1.0475887E0,9.406912E-1,0E0,0E0,1.1003546E0,0E0,1.6187593E0,0E0,6.396372E-1,1.2471321E0,0E0,9.780427E-1,7.302173E-1,0E0,0E0,0E0,0E0,0E0,0E0],"parents":[2147483647,0,0,1,1,2,2,3,3,6,6,8,8,10,10,11,11,13,13,14,14],"right_children":[2,4,6,8,-1,-1,10,-1,12,-1,14,16,-1,18,20,-1,-1,-1,-1,-1,-1],"split_conditions":[3.1473764E-4,5.729167E-1,3.863289E-4,5.833333E-1,-1.6501825E-1,1.2940982E-1,6.199078E-4,-1.2257536E-1,6.666667E-1,-1.10517435E-1,1E0,9.823009E-1,-8.275062E-2,7.2E-1,2.628752E-3,2.1947394E-1,-2.1977998E-2,-5.276198E-2,6.8004996E-2,-1.3684416E-1,3.3505574E-2],"split_indices":[3,0,3,2,0,0,3,0,2,0,9,4,0,1,3,0,0,0,0,0,0],"split_type":[0,0,0,0,0,0,0,0,0,0,0,0,0,0,0,0,0,0,0,0,0],"sum_hessian":[2.534517E1,7.330102E0,1.8015066E1,5.5077133E0,1.8223884E0,1.6100633E0,1.6405003E1,1.3525026E0,4.155211E0,2.324387E0,1.4080616E1,2.231933E0,1.9232779E0,1.1642891E1,2.4377248E0,1.0435253E0,1.1884078E0,2.8583498E0,8.784541E0,1.1090946E0,1.3286303E0],"tree_param":{"num_deleted":"0","num_feature":"121","num_nodes":"21","size_leaf_vector":"1"}},{"base_weights":[-2.1628747E-2,-1.3502981E-1,6.198353E-2,-6.1935086E-2,4.6318224E-1,2.5135082E-1,-3.381008E-1,-1.7130869E-2,1.2736654E-1,-3.0038783E-1,4.44264E-1,-1.5579891E-1,-7.966884E-2,-1.0800121E-1,1.7878287E-2,1.17534E-1,-2.2316804E-2,8.5945226E-2,-5.6145232E-2],"categories":[],"categories_nodes":[],"categories_segments":[],"categories_sizes":[],"default_left":[1,0,1,0,1,0,1,0,0,1,1,0,0,0,0,0,0,0,0],"id":33,"left_children":[1,-1,3,5,7,9,11,-1,-1,13,15,-1,17,-1,-1,-1,-1,-1,-1],"loss_changes":[1.4131465E0,0E0,1.1803687E0,1.6925601E0,5.867857E-1,1.1210732E0,1.1117363E0,0E0,0E0,3.285074E-1,6.457528E-1,0E0,8.999053E-1,0E0,0E0,0E0,0E0,0E0,0E0],"parents":[2147483647,0,0,2,2,3,3,4,4,5,5,6,6,9,9,10,10,12,12],"right_children":[2,-1,4,6,8,10,12,-1,-1,14,16,-1,18,-1,-1,-1,-1,-1,-1],"split_conditions":[1E0,-1.3502981E-1,2.2994983E-3,3.863289E-4,3.5416666E-1,9.292035E-1,7.4E-1,-1.7130869E-2,1.2736654E-1,6.145833E-1,5.9375E-1,-1.5579891E-1,9.20354E-1,-1.0800121E-1,1.7878287E-2,1.17534E-1,-2.2316804E-2,8.5945226E-2,-5.6145232E-2],"split_indices":[99,0,3,3,0,4,1,0,0,0,0,0,4,0,0,0,0,0,0],"split_type":[0,0,0,0,0,0,0,0,0,0,0,0,0,0,0,0,0,0,0],"sum_hessian":[2.4095903E1,1.9306928E0,2.216521E1,1.7580675E1,4.584534E0,8.2788725E0,9.301803E0,1.2236933E0,3.360841E0,2.000437E0,6.278435E0,2.693052E0,6.608751E0,1.0001662E0,1.000271E0,4.9453187E0,1.3331167E0,1.5484066E0,5.060344E0],"tree_param":{"num_deleted":"0","num_feature":"121","num_nodes":"19","size_leaf_vector":"1"}},{"base_weights":[6.618972E-2,1.6091575E-1,-3.7215555E-1,1.4585489E-5,6.4565647E-1,-1.7262632E-1,4.32556E-2,-4.2246947E-1,1.6804022E-1,-2.3814557E-2,1.0998403E0,1.0046822E-2,-1.4161481E-1,5.9311587E-1,-7.407349E-2,3.705654E-2,2.888271E-1,1.5317017E-1,5.174979E-4,-1.17006876E-1,1.843537E-2],"categories":[],"categories_nodes":[],"categories_segments":[],"categories_sizes":[],"default_left":[1,1,0,1,0,0,0,0,1,0,0,0,0,1,0,0,0,0,0,0,0],"id":34,"left_children":[1,3,5,7,9,-1,-1,11,13,-1,15,-1,-1,17,19,-1,-1,-1,-1,-1,-1],"loss_changes":[1.1105723E0,1.6773254E0,1.5729475E0,1.2881665E0,1.9924307E0,0E0,0E0,7.326606E-1,1.3800771E0,0E0,8.219366E-1,0E0,0E0,4.899156E-1,8.320859E-1,0E0,0E0,0E0,0E0,0E0,0E0],"parents":[2147483647,0,0,1,1,2,2,3,3,4,4,7,7,8,8,10,10,13,13,14,14],"right_children":[2,4,6,8,10,-1,-1,12,14,-1,16,-1,-1,18,20,-1,-1,-1,-1,-1,-1],"split_conditions":[6.770833E-1,1E0,1.2398156E-3,2.820762E-4,9.734513E-1,-1.7262632E-1,4.32556E-2,8.4E-1,5.714286E-1,-2.3814557E-2,9.6E-1,1.0046822E-2,-1.4161481E-1,4.6875E-1,6.0714287E-1,3.705654E-2,2.888271E-1,1.5317017E-1,5.174979E-4,-1.17006876E-1,1.843537E-2],"split_indices":[0,12,3,3,4,0,0,1,2,0,1,0,0,0,2,0,0,0,0,0,0],"split_type":[0,0,0,0,0,0,0,0,0,0,0,0,0,0,0,0,0,0,0,0,0],"sum_hessian":[2.4303907E1,2.0505573E1,3.7983344E0,1.6146168E1,4.359406E0,1.8161497E0,1.9821848E0,4.163397E0,1.198277E1,1.8993008E0,2.4601054E0,1.8784652E0,2.2849314E0,3.8222892E0,8.1604805E0,1.0935197E0,1.3665856E0,2.7275617E0,1.0947276E0,1.3849425E0,6.7755384E0],"tree_param":{"num_deleted":"0","num_feature":"121","num_nodes":"21","size_leaf_vector":"1"}},{"base_weights":[2.6142506E-2,-1.3111201E-1,1.05180055E-1,-1.19873606E-1,1.748584E-1,8.2818136E-2,1.5600066E-1,1.4472373E-2,1.1857026E-1,5.5097558E-2,-3.23128E-2],"categories":[],"categories_nodes":[],"categories_segments":[],"categories_sizes":[],"default_left":[1,0,0,0,0,0,0,0,0,0,0],"id":35,"left_children":[1,-1,3,-1,5,7,-1,9,-1,-1,-1],"loss_changes":[1.458173E0,0E0,1.2813625E0,0E0,1.1932638E0,7.1372813E-1,0E0,9.311965E-1,0E0,0E0,0E0],"parents":[2147483647,0,0,2,2,4,4,5,5,7,7],"right_children":[2,-1,4,-1,6,8,-1,10,-1,-1,-1],"split_conditions":[1.6825597E-5,-1.3111201E-1,1E0,-1.19873606E-1,1E0,3.493456E-3,1.5600066E-1,3.863289E-4,1.1857026E-1,5.5097558E-2,-3.23128E-2],"split_indices":[3,0,99,0,15,3,0,3,0,0,0],"split_type":[0,0,0,0,0,0,0,0,0,0,0],"sum_hessian":[2.4783567E1,1.8170595E0,2.2966509E1,1.3827724E0,2.1583736E1,1.9721088E1,1.8626477E0,1.8297546E1,1.4235431E0,7.1423616E0,1.1155184E1],"tree_param":{"num_deleted":"0","num_feature":"121","num_nodes":"11","size_leaf_vector":"1"}},{"base_weights":[-1.1853876E-1,-1.4493473E-1,-1.7547585E-2,4.9757253E-2,-1.0033913E-1,-8.679859E-2,4.3012357E-1,-3.6081403E-1,1.4967524E-1,-5.7991218E-2,7.216555E-1,4.81619E-2,-1.0330721E-1,9.419233E-2,-8.6821795E-2,2.1567033E-1,-2.7537286E-2],"categories":[],"categories_nodes":[],"categories_segments":[],"categories_sizes":[],"default_left":[1,0,1,0,0,1,0,0,0,0,1,0,0,0,0,0,0],"id":36,"left_children":[1,-1,3,5,-1,7,9,11,13,-1,15,-1,-1,-1,-1,-1,-1],"loss_changes":[1.4707496E0,0E0,7.3525286E-1,1.0786045E0,0E0,1.0637641E0,1.3562374E0,8.281425E-1,1.9059088E0,0E0,1.4284625E0,0E0,0E0,0E0,0E0,0E0,0E0],"parents":[2147483647,0,0,2,2,3,3,5,5,6,6,7,7,8,8,10,10],"right_children":[2,-1,4,6,-1,8,10,12,14,-1,16,-1,-1,-1,-1,-1,-1],"split_conditions":[6.499299E-5,-1.4493473E-1,1E0,7.380952E-1,-1.0033913E-1,7.7E-1,9.823009E-1,4E-1,8.9E-1,-5.7991218E-2,7.7380955E-1,4.81619E-2,-1.0330721E-1,9.419233E-2,-8.6821795E-2,2.1567033E-1,-2.7537286E-2],"split_indices":[3,0,1,2,0,1,4,1,1,0,2,0,0,0,0,0,0],"split_type":[0,0,0,0,0,0,0,0,0,0,0,0,0,0,0,0,0],"sum_hessian":[2.3233986E1,2.4362628E0,2.0797724E1,1.9047081E1,1.7506421E0,1.4583309E1,4.463772E0,6.5118523E0,8.071457E0,1.2879528E0,3.1758192E0,1.2265888E0,5.2852635E0,5.3308673E0,2.7405894E0,2.0641665E0,1.1116526E0],"tree_param":{"num_deleted":"0","num_feature":"121","num_nodes":"17","size_leaf_vector":"1"}},{"base_weights":[-1.0577825E-1,-1.8419315E-1,8.189857E-2,-2.9537806E-1,1.547369E-1,-4.366249E-1,1.5912642E-1,3.6106172E-1,-4.266328E-2,1.2574352E-2,-6.7791575E-1,-1.1145681E-1,5.013262E-1,-2.1979867E-2,1.3482727E-1,5.4174155E-2,-9.3688436E-2,-1.676576E-1,4.8031013E-2,1.8447763E-1,-2.5693227E-2],"categories":[],"categories_nodes":[],"categories_segments":[],"categories_sizes":[],"default_left":[0,1,0,0,1,0,0,0,0,0,0,0,0,0,0,0,0,0,0,0,0],"id":37,"left_children":[1,3,-1,5,7,9,11,13,-1,15,17,-1,19,-1,-1,-1,-1,-1,-1,-1,-1],"loss_changes":[1.0643462E0,8.721992E-1,0E0,1.1517464E0,5.382569E-1,1.4314997E0,1.4389355E0,7.0270824E-1,0E0,8.188755E-1,1.4614906E0,0E0,1.1069212E0,0E0,0E0,0E0,0E0,0E0,0E0,0E0,0E0],"parents":[2147483647,0,0,1,1,3,3,4,4,5,5,6,6,7,7,9,9,10,10,12,12],"right_children":[2,4,-1,6,8,10,12,14,-1,16,18,-1,20,-1,-1,-1,-1,-1,-1,-1,-1],"split_conditions":[3.493456E-3,9.3E-1,8.189857E-2,1E0,7.619048E-1,6.458333E-1,7.8E-1,7.0238096E-1,-4.266328E-2,2.628752E-3,2.0873637E-3,-1.1145681E-1,4.7705517E-4,-2.1979867E-2,1.3482727E-1,5.4174155E-2,-9.3688436E-2,-1.676576E-1,4.8031013E-2,1.8447763E-1,-2.5693227E-2],"split_indices":[3,1,0,7,2,0,1,2,0,3,3,0,3,0,0,0,0,0,0,0,0],"split_type":[0,0,0,0,0,0,0,0,0,0,0,0,0,0,0,0,0,0,0,0,0],"sum_hessian":[2.347524E1,2.0932262E1,2.5429783E0,1.5858449E1,5.073814E0,1.2128575E1,3.729873E0,3.2634E0,1.8104138E0,4.569552E0,7.559024E0,1.0025196E0,2.7273533E0,1.5622542E0,1.7011459E0,3.2573159E0,1.3122362E0,6.5089216E0,1.0501019E0,1.3561066E0,1.3712467E0],"tree_param":{"num_deleted":"0","num_feature":"121","num_nodes":"21","size_leaf_vector":"1"}},{"base_weights":[5.503809E-2,-4.5619898E-2,3.7299445E-1,-4.363878E-1,7.354273E-2,2.0879284E-1,-7.157297E-2,6.8662444E-4,-1.390676E-1,4.6923262E-1,-1.1530348E-1,-1.1330928E-1,1.0094285E-1,1.0703896E-3,1.4704232E-1,-1.9938739E-1,7.672824E-2,-1.289559E-1,-7.972281E-3],"categories":[],"categories_nodes":[],"categories_segments":[],"categories_sizes":[],"default_left":[1,1,1,0,1,0,0,0,0,0,0,0,0,0,0,1,0,0,0],"id":38,"left_children":[1,3,5,7,9,-1,11,-1,-1,13,15,-1,-1,-1,-1,17,-1,-1,-1],"loss_changes":[8.269879E-1,9.6867317E-1,1.9224453E0,5.5412483E-1,1.2697988E0,0E0,1.615653E0,0E0,0E0,6.6890585E-1,5.722008E-1,0E0,0E0,0E0,0E0,7.395017E-1,0E0,0E0,0E0],"parents":[2147483647,0,0,1,1,2,2,3,3,4,4,6,6,9,9,10,10,15,15],"right_children":[2,4,6,8,10,-1,12,-1,-1,14,16,-1,-1,-1,-1,18,-1,-1,-1],"split_conditions":[1E0,2.820762E-4,6.547619E-1,8.4E-1,5.714286E-1,2.0879284E-1,9.823009E-1,6.8662444E-4,-1.390676E-1,5E-1,6.668545E-3,-1.1330928E-1,1.0094285E-1,1.0703896E-3,1.4704232E-1,7.3E-1,7.672824E-2,-1.289559E-1,-7.972281E-3],"split_indices":[12,3,2,1,2,0,4,0,0,2,3,0,0,0,0,1,0,0,0],"split_type":[0,0,0,0,0,0,0,0,0,0,0,0,0,0,0,0,0,0,0],"sum_hessian":[2.4307789E1,1.911342E1,5.194367E0,3.8444064E0,1.5269014E1,1.5327588E0,3.661608E0,1.7903241E0,2.0540824E0,4.4532905E0,1.0815724E1,1.9788636E0,1.6827444E0,1.994647E0,2.4586434E0,9.769685E0,1.0460397E0,1.7742318E0,7.995453E0],"tree_param":{"num_deleted":"0","num_feature":"121","num_nodes":"19","size_leaf_vector":"1"}},{"base_weights":[-5.6672122E-2,-1.2386779E-1,1.1777046E-2,-1.1157971E-1,7.319495E-2,-7.358365E-2,4.1923526E-1,-1.5628465E-1,1.043453E-1,1.7521928E-1,2.5203073E-2,-9.3371145E-2,6.7452743E-4,7.728749E-2,-8.1439994E-2],"categories":[],"categories_nodes":[],"categories_segments":[],"categories_sizes":[],"default_left":[1,0,1,0,0,0,1,0,0,0,1,0,0,0,0],"id":39,"left_children":[1,-1,3,-1,5,7,9,11,-1,-1,13,-1,-1,-1,-1],"loss_changes":[8.9510447E-1,0E0,7.9423153E-1,0E0,1.0629925E0,8.2591575E-1,1.0943352E0,6.979872E-1,0E0,0E0,8.382947E-1,0E0,0E0,0E0,0E0],"parents":[2147483647,0,0,2,2,4,4,5,5,6,6,7,7,10,10],"right_children":[2,-1,4,-1,6,8,10,12,-1,-1,14,-1,-1,-1,-1],"split_conditions":[1E0,-1.2386779E-1,1.6825597E-5,-1.1157971E-1,9.7E-1,3.493456E-3,6.547619E-1,7.6E-1,1.043453E-1,1.7521928E-1,1E0,-9.3371145E-2,6.7452743E-4,7.728749E-2,-8.1439994E-2],"split_indices":[99,0,3,0,1,3,2,1,0,0,1,0,0,0,0],"split_type":[0,0,0,0,0,0,0,0,0,0,0,0,0,0,0],"sum_hessian":[2.2051588E1,1.5187749E0,2.0532812E1,1.2115507E0,1.9321262E1,1.4119572E1,5.20169E0,1.3044845E1,1.0747275E0,1.8422629E0,3.3594272E0,3.775838E0,9.269007E0,1.8882579E0,1.4711694E0],"tree_param":{"num_deleted":"0","num_feature":"121","num_nodes":"15","size_leaf_vector":"1"}},{"base_weights":[3.518204E-2,-1.01152234E-1,3.0348298E-1,2.274206E-1,-2.7114508E-1,-4.413204E-2,4.340444E-1,-6.58581E-2,5.3865254E-1,-3.7964335E-1,7.156734E-2,5.828315E-1,-3.6071893E-2,1.2835994E-2,1.4896037E-1,2.2442147E-2,-4.7415185E-1,-4.113815E-3,7.1673346E-1,-1.4508629E-1,-9.957934E-3,1.7956726E-1,5.3809077E-2],"categories":[],"categories_nodes":[],"categories_segments":[],"categories_sizes":[],"default_left":[0,0,0,0,0,0,1,0,0,1,0,1,0,0,0,0,0,0,0,0,0,0,0],"id":40,"left_children":[1,3,5,7,9,-1,11,-1,13,15,-1,17,-1,-1,-1,-1,19,-1,21,-1,-1,-1,-1],"loss_changes":[8.985571E-1,9.8226064E-1,6.599349E-1,1.2453136E0,9.08251E-1,0E0,7.392669E-1,0E0,3.759991E-1,5.2448106E-1,0E0,4.8505282E-1,0E0,0E0,0E0,0E0,8.911308E-1,0E0,1.469388E-1,0E0,0E0,0E0,0E0],"parents":[2147483647,0,0,1,1,2,2,3,3,4,4,6,6,8,8,9,9,11,11,16,16,18,18],"right_children":[2,4,6,8,10,-1,12,-1,14,16,-1,18,-1,-1,-1,-1,20,-1,22,-1,-1,-1,-1],"split_conditions":[7.380952E-1,9.20354E-1,9.292035E-1,8.584071E-1,1E0,-4.413204E-2,8.214286E-1,-6.58581E-2,7.188819E-4,2.4E-1,7.156734E-2,1.6825597E-5,-3.6071893E-2,1.2835994E-2,1.4896037E-1,2.2442147E-2,6.3095236E-1,-4.113815E-3,1E0,-1.4508629E-1,-9.957934E-3,1.7956726E-1,5.3809077E-2],"split_indices":[2,4,4,4,10,0,2,0,3,1,0,3,0,0,0,0,2,0,18,0,0,0,0],"split_type":[0,0,0,0,0,0,0,0,0,0,0,0,0,0,0,0,0,0,0,0,0,0,0],"sum_hessian":[2.2725864E1,1.5481894E1,7.2439704E0,5.163579E0,1.0318315E1,1.3069775E0,5.936993E0,1.8307793E0,3.3327997E0,9.138376E0,1.1799386E0,4.8209214E0,1.1160715E0,1.4066303E0,1.9261693E0,1.4427111E0,7.6956654E0,1.0292434E0,3.7916782E0,4.387946E0,3.307719E0,1.9837129E0,1.8079652E0],"tree_param":{"num_deleted":"0","num_feature":"121","num_nodes":"23","size_leaf_vector":"1"}},{"base_weights":[1.0132734E-1,-3.377542E-1,2.125964E-1,-1.3413593E-1,4.172324E-2,6.98872E-1,1.9721951E-2,3.0755448E-1,1.887909E-1,-2.6144654E-1,1.5433836E-1,-4.3995656E-2,1.2337176E-1,3.3193072E-3,-1.251865E-1,4.0787995E-1,-1.1653316E-1,-8.44458E-2,7.789041E-2,1.3501073E-1,-7.195323E-2,-9.5246345E-2,4.9057372E-2],"categories":[],"categories_nodes":[],"categories_segments":[],"categories_sizes":[],"default_left":[1,1,0,0,0,0,0,0,0,0,0,0,0,0,0,1,1,0,0,0,0,0,0],"id":41,"left_children":[1,3,5,-1,-1,7,9,11,-1,13,15,-1,-1,17,-1,19,21,-1,-1,-1,-1,-1,-1],"loss_changes":[1.181913E0,1.0458128E0,1.7440097E0,0E0,0E0,2.1735644E-1,5.872162E-1,7.1034783E-1,0E0,4.8932645E-1,7.6172113E-1,0E0,0E0,8.084518E-1,0E0,1.390092E0,8.723857E-1,0E0,0E0,0E0,0E0,0E0,0E0],"parents":[2147483647,0,0,1,1,2,2,5,5,6,6,7,7,9,9,10,10,13,13,15,15,16,16],"right_children":[2,4,6,-1,-1,8,10,12,-1,14,16,-1,-1,18,-1,20,22,-1,-1,-1,-1,-1,-1],"split_conditions":[5E-1,5.9E-1,6.0714287E-1,-1.3413593E-1,4.172324E-2,5.833333E-1,2.820762E-4,9.244181E-4,1.887909E-1,9.8E-1,1.0758485E-3,-4.3995656E-2,1.2337176E-1,7.380952E-1,-1.251865E-1,6.458333E-1,5.833333E-1,-8.44458E-2,7.789041E-2,1.3501073E-1,-7.195323E-2,-9.5246345E-2,4.9057372E-2],"split_indices":[2,1,2,0,0,2,3,3,0,1,3,0,0,2,0,0,0,0,0,0,0,0,0],"split_type":[0,0,0,0,0,0,0,0,0,0,0,0,0,0,0,0,0,0,0,0,0,0,0],"sum_hessian":[2.1721945E1,3.980182E0,1.7741762E1,2.3318024E0,1.6483794E0,4.293506E0,1.3448256E1,2.5218415E0,1.7716647E0,4.049031E0,9.399225E0,1.0388432E0,1.4829984E0,2.9193108E0,1.12972E0,4.5936575E0,4.8055677E0,1.344303E0,1.5750077E0,3.497126E0,1.0965312E0,2.2512782E0,2.5542898E0],"tree_param":{"num_deleted":"0","num_feature":"121","num_nodes":"23","size_leaf_vector":"1"}},{"base_weights":[-9.936972E-2,-2.9522967E-1,2.2069226E-1,-3.8733065E-1,7.433365E-2,4.36409E-1,-1.04749374E-1,1.02579735E-1,-5.1667684E-1,-4.790081E-2,6.5024525E-1,-6.0950954E-2,8.455818E-2,-6.4124215E-1,-3.469423E-2,1.0076176E0,1.5786098E-1,-1.465485E-1,-7.1354E-3,-7.3633246E-2,6.582152E-2,2.537715E-1,5.380724E-2,-4.756258E-2,8.5672416E-2],"categories":[],"categories_nodes":[],"categories_segments":[],"categories_sizes":[],"default_left":[0,1,0,0,0,1,0,1,1,0,0,0,0,1,0,0,1,0,0,0,0,0,0,0,0],"id":42,"left_children":[1,3,5,7,-1,9,-1,11,13,-1,15,-1,-1,17,19,21,23,-1,-1,-1,-1,-1,-1,-1,-1],"loss_changes":[1.4143369E0,9.903283E-1,1.6325581E0,8.512598E-1,0E0,1.2143172E0,0E0,5.80872E-1,5.860381E-1,0E0,8.67342E-1,0E0,0E0,4.1678476E-1,5.018499E-1,2.7492785E-1,4.9134228E-1,0E0,0E0,0E0,0E0,0E0,0E0,0E0,0E0],"parents":[2147483647,0,0,1,1,2,2,3,3,5,5,7,7,8,8,10,10,13,13,14,14,15,15,16,16],"right_children":[2,4,6,8,-1,10,-1,12,14,-1,16,-1,-1,18,20,22,24,-1,-1,-1,-1,-1,-1,-1,-1],"split_conditions":[9.9115044E-1,3.493456E-3,1E0,1.1942875E-4,7.433365E-2,7.917928E-5,-1.04749374E-1,8.2E-1,1E0,-4.790081E-2,3.863289E-4,-6.0950954E-2,8.455818E-2,1E0,8.8495576E-1,1E0,7.4E-1,-1.465485E-1,-7.1354E-3,-7.3633246E-2,6.582152E-2,2.537715E-1,5.380724E-2,-4.756258E-2,8.5672416E-2],"split_indices":[4,3,9,3,0,3,0,1,11,0,3,0,0,20,4,18,1,0,0,0,0,0,0,0,0],"split_type":[0,0,0,0,0,0,0,0,0,0,0,0,0,0,0,0,0,0,0,0,0,0,0,0,0],"sum_hessian":[2.0522408E1,1.2779597E1,7.7428102E0,1.159719E1,1.182408E0,6.3240576E0,1.4187527E0,2.465567E0,9.131622E0,1.4910325E0,4.833025E0,1.1064028E0,1.3591645E0,6.9937162E0,2.1379063E0,2.1941252E0,2.6389E0,5.893239E0,1.1004771E0,1.1091912E0,1.0287153E0,1.0904589E0,1.1036663E0,1.1205968E0,1.5183032E0],"tree_param":{"num_deleted":"0","num_feature":"121","num_nodes":"25","size_leaf_vector":"1"}},{"base_weights":[6.269348E-2,3.6670676E-1,-3.9369103E-2,-3.7757296E-2,6.857968E-1,-1.0957026E-1,4.017459E-2,1.9897936E-1,2.8958037E-2,-1.17399685E-1,2.2040732E-1,2.265911E-1,-5.066715E-1,4.1837445E-1,-5.4529108E-2,-5.7689227E-2,1.1668717E-1,-1.5147322E-1,1.4958202E-2,-6.646376E-3,1.478006E-1],"categories":[],"categories_nodes":[],"categories_segments":[],"categories_sizes":[],"default_left":[1,0,0,0,0,0,1,0,0,1,0,0,1,0,0,0,0,0,0,0,0],"id":43,"left_children":[1,3,5,-1,7,-1,9,-1,-1,11,13,15,17,19,-1,-1,-1,-1,-1,-1,-1],"loss_changes":[6.9590247E-1,1.1250985E0,7.2358096E-1,0E0,4.886477E-1,0E0,4.7831488E-1,0E0,0E0,1.3403431E0,8.7333465E-1,1.1882559E0,7.2755384E-1,8.853502E-1,0E0,0E0,0E0,0E0,0E0,0E0,0E0],"parents":[2147483647,0,0,1,1,2,2,4,4,6,6,9,9,10,10,11,11,12,12,13,13],"right_children":[2,4,6,-1,8,-1,10,-1,-1,12,14,16,18,20,-1,-1,-1,-1,-1,-1,-1],"split_conditions":[3.9E-1,9.823009E-1,5.9E-1,-3.7757296E-2,6.0714287E-1,-1.0957026E-1,6.199078E-4,1.9897936E-1,2.8958037E-2,6.666667E-1,1E0,5.952381E-1,7.083333E-1,8.4E-1,-5.4529108E-2,-5.7689227E-2,1.1668717E-1,-1.5147322E-1,1.4958202E-2,-6.646376E-3,1.478006E-1],"split_indices":[1,4,1,0,2,0,3,0,0,2,7,2,0,1,0,0,0,0,0,0,0],"split_type":[0,0,0,0,0,0,0,0,0,0,0,0,0,0,0,0,0,0,0,0,0],"sum_hessian":[2.0962656E1,4.617016E0,1.634564E1,1.8334987E0,2.783517E0,1.4147081E0,1.4930932E1,1.2375048E0,1.5460122E0,8.152216E0,6.7787156E0,4.5496783E0,3.602538E0,4.9447823E0,1.833933E0,1.9405464E0,2.6091318E0,2.3058593E0,1.2966788E0,2.4252143E0,2.5195682E0],"tree_param":{"num_deleted":"0","num_feature":"121","num_nodes":"21","size_leaf_vector":"1"}},{"base_weights":[-1.633998E-2,-4.42341E-1,7.8435205E-2,-1.3637E-1,2.9261008E-2,3.2518047E-1,-4.946097E-2,6.1655235E-1,2.9146302E-2,9.9481165E-2,-2.5161982E-1,2.7633479E-2,1.5439527E-1,-8.682785E-2,9.592447E-2,1.3684571E-1,-4.498072E-1,-5.2226722E-2,8.938639E-2,-1.3045979E-1,2.706244E-2],"categories":[],"categories_nodes":[],"categories_segments":[],"categories_sizes":[],"default_left":[1,0,0,0,0,0,1,0,1,0,0,0,0,0,0,0,0,0,0,0,0],"id":44,"left_children":[1,3,5,-1,-1,7,9,11,13,-1,15,-1,-1,-1,-1,17,19,-1,-1,-1,-1],"loss_changes":[9.068442E-1,6.752415E-1,6.005252E-1,0E0,0E0,5.387557E-1,1.5695878E0,1.3150144E-1,1.095439E0,0E0,8.470855E-1,0E0,0E0,0E0,0E0,6.3670576E-1,9.1639566E-1,0E0,0E0,0E0,0E0],"parents":[2147483647,0,0,1,1,2,2,5,5,6,6,7,7,8,8,10,10,15,15,16,16],"right_children":[2,4,6,-1,-1,8,10,12,14,-1,16,-1,-1,-1,-1,18,20,-1,-1,-1,-1],"split_conditions":[1.9E-1,2.2529804E-3,2.916437E-4,-1.3637E-1,2.9261008E-2,9.823009E-1,5.714286E-1,7.395833E-1,7.380952E-1,9.9481165E-2,6.458333E-1,2.7633479E-2,1.5439527E-1,-8.682785E-2,9.592447E-2,5.833333E-1,1.570389E-3,-5.2226722E-2,8.938639E-2,-1.3045979E-1,2.706244E-2],"split_indices":[1,3,3,0,0,4,2,0,2,0,0,0,0,0,0,0,3,0,0,0,0],"split_type":[0,0,0,0,0,0,0,0,0,0,0,0,0,0,0,0,0,0,0,0,0],"sum_hessian":[2.0601578E1,3.0818467E0,1.7519732E1,2.0780082E0,1.0038385E0,5.4543414E0,1.206539E1,2.2031662E0,3.2511752E0,2.862223E0,9.203167E0,1.0034825E0,1.1996838E0,1.620678E0,1.6304972E0,3.2136433E0,5.9895234E0,1.4765005E0,1.7371428E0,4.364345E0,1.6251783E0],"tree_param":{"num_deleted":"0","num_feature":"121","num_nodes":"21","size_leaf_vector":"1"}},{"base_weights":[7.947235E-2,-4.1052324E-1,1.8487968E-1,-3.989171E-3,-1.279909E-1,-2.143467E-2,4.141308E-1,2.4419889E-1,-2.1755175E-1,1.35987E-1,2.3147313E-1,1.3625096E-1,-7.8061305E-2,2.0313446E-1,-1.3042852E-1,-6.5123565E-2,2.9935542E-1,-7.532885E-2,4.1286934E-2,-3.1186832E-2,8.0388695E-2,9.616908E-2,-5.0694197E-2],"categories":[],"categories_nodes":[],"categories_segments":[],"categories_sizes":[],"default_left":[1,0,0,0,0,0,0,0,0,0,0,0,0,1,0,0,0,0,0,0,0,0,0],"id":45,"left_children":[1,3,5,-1,-1,7,9,11,13,15,-1,-1,17,19,-1,-1,21,-1,-1,-1,-1,-1,-1],"loss_changes":[1.1500999E0,3.4500664E-1,8.5104114E-1,0E0,0E0,5.9087384E-1,1.5963084E0,7.370312E-1,1.3148233E0,6.4844525E-1,0E0,0E0,3.9136145E-1,3.5169005E-1,0E0,0E0,7.1558124E-1,0E0,0E0,0E0,0E0,0E0,0E0],"parents":[2147483647,0,0,1,1,2,2,5,5,6,6,7,7,8,8,9,9,12,12,13,13,16,16],"right_children":[2,4,6,-1,-1,8,10,12,14,16,-1,-1,18,20,-1,-1,22,-1,-1,-1,-1,-1,-1],"split_conditions":[7.917928E-5,9.9115044E-1,9.823009E-1,-3.989171E-3,-1.279909E-1,8.3E-1,1E0,2.8801462E-4,9.20354E-1,3.7511185E-4,2.3147313E-1,1.3625096E-1,2.2994983E-3,8.4E-1,-1.3042852E-1,-6.5123565E-2,1E0,-7.532885E-2,4.1286934E-2,-3.1186832E-2,8.0388695E-2,9.616908E-2,-5.0694197E-2],"split_indices":[3,4,4,0,0,1,12,3,4,3,0,0,3,1,0,0,9,0,0,0,0,0,0],"split_type":[0,0,0,0,0,0,0,0,0,0,0,0,0,0,0,0,0,0,0,0,0,0,0],"sum_hessian":[1.9798077E1,2.9925058E0,1.6805573E1,1.5095782E0,1.4829276E0,9.322393E0,7.483178E0,3.8553252E0,5.4670687E0,6.3061633E0,1.1770148E0,1.1634461E0,2.691879E0,3.048596E0,2.4184725E0,1.388825E0,4.9173384E0,1.1553848E0,1.5364943E0,1.1632717E0,1.8853242E0,3.800018E0,1.1173202E0],"tree_param":{"num_deleted":"0","num_feature":"121","num_nodes":"23","size_leaf_vector":"1"}},{"base_weights":[6.702016E-2,-1.1869197E-1,1.364528E-1,-5.199461E-2,1.8073587E-1,-9.50439E-3,3.2918972E-1,2.8410324E-1,-3.204344E-1,5.6190485E-1,2.8260175E-2,-4.650138E-2,1.08700216E-1,-1.2862654E-1,-6.884279E-3,1.4300404E-1,-3.6321674E-3,1.1087864E-1,-5.4519515E-2],"categories":[],"categories_nodes":[],"categories_segments":[],"categories_sizes":[],"default_left":[0,0,0,0,0,0,0,0,0,1,0,0,0,0,0,0,0,0,0],"id":46,"left_children":[1,-1,3,-1,5,7,9,11,13,15,17,-1,-1,-1,-1,-1,-1,-1,-1],"loss_changes":[1.0317519E0,0E0,3.9059755E-1,0E0,5.170347E-1,9.0788716E-1,7.0185673E-1,8.141087E-1,4.223247E-1,5.2159655E-1,1.0252644E0,0E0,0E0,0E0,0E0,0E0,0E0,0E0,0E0],"parents":[2147483647,0,0,2,2,4,4,5,5,6,6,7,7,8,8,9,9,10,10],"right_children":[2,-1,4,-1,6,8,10,12,14,16,18,-1,-1,-1,-1,-1,-1,-1,-1],"split_conditions":[4.7619048E-1,-1.1869197E-1,7.9646015E-1,-5.199461E-2,6.199078E-4,1.5011072E-4,1E0,6.6972476E-5,5.952381E-1,9.1E-1,9.1150445E-1,-4.650138E-2,1.08700216E-1,-1.2862654E-1,-6.884279E-3,1.4300404E-1,-3.6321674E-3,1.1087864E-1,-5.4519515E-2],"split_indices":[2,0,4,0,3,3,18,3,2,1,4,0,0,0,0,0,0,0,0],"split_type":[0,0,0,0,0,0,0,0,0,0,0,0,0,0,0,0,0,0,0],"sum_hessian":[1.9732576E1,1.1591216E0,1.8573454E1,1.3768715E0,1.7196583E1,7.947727E0,9.248856E0,4.132106E0,3.8156216E0,4.726513E0,4.522342E0,1.4159007E0,2.7162051E0,1.2061508E0,2.6094706E0,3.555375E0,1.1711379E0,1.3386443E0,3.1836982E0],"tree_param":{"num_deleted":"0","num_feature":"121","num_nodes":"19","size_leaf_vector":"1"}},{"base_weights":[-6.826488E-2,3.8585362E-1,-1.4737004E-1,-1.0283909E-2,1.1924263E-1,-3.6703706E-1,4.190789E-2,-3.415222E-2,-1.5372054E-1,-6.708827E-2,1.0409712E-1,2.0019929E-1,-9.2183664E-2,-1.8341203E-1,5.0353862E-2,-1.893064E-2,8.2239695E-2,-6.1351676E-2,5.6034494E-2],"categories":[],"categories_nodes":[],"categories_segments":[],"categories_sizes":[],"default_left":[1,0,0,0,0,0,0,0,0,0,0,0,0,0,0,0,0,0,0],"id":47,"left_children":[1,3,5,-1,-1,7,9,11,-1,13,-1,15,-1,17,-1,-1,-1,-1,-1],"loss_changes":[7.953478E-1,3.3660823E-1,7.734027E-1,0E0,0E0,1.115431E0,5.925703E-1,6.6397053E-1,0E0,4.019977E-1,0E0,3.1185922E-1,0E0,5.209538E-1,0E0,0E0,0E0,0E0,0E0],"parents":[2147483647,0,0,1,1,2,2,5,5,6,6,7,7,9,9,11,11,13,13],"right_children":[2,4,6,-1,-1,8,10,12,-1,14,-1,16,-1,18,-1,-1,-1,-1,-1],"split_conditions":[4.4047618E-1,3.1473764E-4,6.199078E-4,-1.0283909E-2,1.1924263E-1,8.7E-1,1E0,3.5531702E-4,-1.5372054E-1,3.2328242E-3,1.0409712E-1,8.2E-1,-9.2183664E-2,1E0,5.0353862E-2,-1.893064E-2,8.2239695E-2,-6.1351676E-2,5.6034494E-2],"split_indices":[2,3,3,0,0,1,12,3,0,3,0,1,0,20,0,0,0,0,0],"split_type":[0,0,0,0,0,0,0,0,0,0,0,0,0,0,0,0,0,0,0],"sum_hessian":[1.9557364E1,2.3261154E0,1.7231247E1,1.0009694E0,1.3251461E0,7.5407114E0,9.6905365E0,4.7161903E0,2.8245208E0,8.593242E0,1.097295E0,3.3871083E0,1.3290821E0,6.6075115E0,1.9857302E0,1.6428195E0,1.7442887E0,5.4861083E0,1.1214032E0],"tree_param":{"num_deleted":"0","num_feature":"121","num_nodes":"19","size_leaf_vector":"1"}},{"base_weights":[3.6893878E-2,2.512903E-1,-1.52488E-1,-4.340801E-2,5.9437716E-1,-4.235463E-1,2.1995295E-2,2.711066E-1,-4.466105E-1,-3.4152985E-2,9.406337E-1,-1.2492937E-1,8.674992E-3,-7.8512914E-2,1.5480576E-1,-1.2888852E-2,1.024582E-1,-1.0973593E-2,-1.21036164E-1,4.0421378E-2,2.4172667E-1,3.024205E-1,-3.7749205E-2,8.076727E-2,-1.0593677E-2],"categories":[],"categories_nodes":[],"categories_segments":[],"categories_sizes":[],"default_left":[1,0,1,0,1,0,0,0,1,0,0,0,0,0,0,0,0,0,0,0,0,0,0,0,0],"id":48,"left_children":[1,3,5,7,9,11,13,15,17,-1,19,-1,-1,-1,21,-1,-1,-1,-1,-1,-1,23,-1,-1,-1],"loss_changes":[8.743388E-1,1.0404071E0,5.55823E-1,9.238181E-1,1.4071137E0,4.5664436E-1,5.001666E-1,3.7117195E-1,1.6257334E-1,0E0,4.272294E-1,0E0,0E0,0E0,3.9997482E-1,0E0,0E0,0E0,0E0,0E0,0E0,2.056964E-1,0E0,0E0,0E0],"parents":[2147483647,0,0,1,1,2,2,3,3,4,4,5,5,6,6,7,7,8,8,10,10,14,14,21,21],"right_children":[2,4,6,8,10,12,14,16,18,-1,20,-1,-1,-1,22,-1,-1,-1,-1,-1,-1,24,-1,-1,-1],"split_conditions":[3.863289E-4,9.9115044E-1,7.4E-1,8.7E-1,7.917928E-5,3.2328242E-3,6.0440187E-4,8.2E-1,6.1904764E-1,-3.4152985E-2,9.4E-1,-1.2492937E-1,8.674992E-3,-7.8512914E-2,1E0,-1.2888852E-2,1.024582E-1,-1.0973593E-2,-1.21036164E-1,4.0421378E-2,2.4172667E-1,7.619048E-1,-3.7749205E-2,8.076727E-2,-1.0593677E-2],"split_indices":[3,4,1,1,3,3,3,1,2,0,1,0,0,0,7,0,0,0,0,0,0,2,0,0,0],"split_type":[0,0,0,0,0,0,0,0,0,0,0,0,0,0,0,0,0,0,0,0,0,0,0,0,0],"sum_hessian":[1.959021E1,9.034965E0,1.0555246E1,5.3300967E0,3.7048678E0,3.5746405E0,6.9806056E0,3.1784167E0,2.1516798E0,1.3121542E0,2.3927135E0,2.2624261E0,1.3122144E0,1.219181E0,5.7614245E0,1.6356286E0,1.5427883E0,1.0078462E0,1.1438335E0,1.1041467E0,1.288567E0,4.1136336E0,1.647791E0,3.0943031E0,1.0193306E0],"tree_param":{"num_deleted":"0","num_feature":"121","num_nodes":"25","size_leaf_vector":"1"}},{"base_weights":[4.802745E-2,-6.879859E-2,3.0946535E-1,-1.16976194E-1,5.6316007E-2,-5.3381495E-2,6.4740694E-1,9.8350756E-2,-2.6384756E-1,-1.0278138E-1,5.724568E-2,1.7419988E-1,3.1487815E-2,2.8511217E-1,-4.5545507E-2,2.2742301E-2,-3.8626412E-1,-2.768064E-4,1.15556814E-1,-1.2241347E-1,7.0235445E-3],"categories":[],"categories_nodes":[],"categories_segments":[],"categories_sizes":[],"default_left":[0,1,1,0,0,1,1,0,0,0,0,0,0,0,0,0,0,0,0,0,0],"id":49,"left_children":[1,3,5,7,-1,9,11,13,15,-1,-1,-1,-1,17,-1,-1,19,-1,-1,-1,-1],"loss_changes":[6.2824386E-1,2.785964E-1,8.0944866E-1,4.5289868E-1,0E0,7.681903E-1,2.2967184E-1,4.4267085E-1,4.2742485E-1,0E0,0E0,0E0,0E0,3.6872807E-1,0E0,0E0,6.393249E-1,0E0,0E0,0E0,0E0],"parents":[2147483647,0,0,1,1,2,2,3,3,5,5,6,6,7,7,8,8,13,13,16,16],"right_children":[2,4,6,8,-1,10,12,14,16,-1,-1,-1,-1,18,-1,-1,20,-1,-1,-1,-1],"split_conditions":[9.7E-1,3.493456E-3,1E0,3.5531702E-4,5.6316007E-2,3.7511185E-4,8.016902E-5,8.4E-1,5.595238E-1,-1.0278138E-1,5.724568E-2,1.7419988E-1,3.1487815E-2,2.820762E-4,-4.5545507E-2,2.2742301E-2,7.0238096E-1,-2.768064E-4,1.15556814E-1,-1.2241347E-1,7.0235445E-3],"split_indices":[1,3,12,3,0,3,3,1,2,0,0,0,0,3,0,0,2,0,0,0,0],"split_type":[0,0,0,0,0,0,0,0,0,0,0,0,0,0,0,0,0,0,0,0,0],"sum_hessian":[1.8872246E1,1.3552865E1,5.319382E0,1.250021E1,1.0526551E0,2.9712255E0,2.3481565E0,5.202795E0,7.297415E0,1.0432742E0,1.9279513E0,1.0783806E0,1.2697757E0,3.387968E0,1.8148266E0,1.8041466E0,5.493268E0,2.2149892E0,1.1729791E0,3.2820253E0,2.2112427E0],"tree_param":{"num_deleted":"0","num_feature":"121","num_nodes":"21","size_leaf_vector":"1"}}]},"name":"gbtree"},"learner_model_param":{"base_score":"1.3338596E-1","boost_from_average":"1","num_class":"0","num_feature":"121","num_target":"1"},"objective":{"name":"binary:logistic","reg_loss_param":{"scale_pos_weight":"1"}}},"version":[3,0,0]}